entity,dim_0,dim_1,dim_2,dim_3,dim_4,dim_5,dim_6,dim_7,dim_8,dim_9,dim_10,dim_11,dim_12,dim_13,dim_14,dim_15,dim_16,dim_17,dim_18,dim_19,dim_20,dim_21,dim_22,dim_23,dim_24,dim_25,dim_26,dim_27,dim_28,dim_29,dim_30,dim_31,dim_32,dim_33,dim_34,dim_35,dim_36,dim_37,dim_38,dim_39,dim_40,dim_41,dim_42,dim_43,dim_44,dim_45,dim_46,dim_47,dim_48,dim_49
00020dc86b4ae9ca54b945dfbdcd29a5,0.05737229064106941,0.2237359881401062,0.0669466108083725,0.08306767046451569,-0.24437014758586884,-0.21184532344341278,-0.2700221538543701,0.026330800727009773,0.0884145200252533,-0.021642081439495087,-0.13894987106323242,0.29397931694984436,0.10240215808153152,0.04572082310914993,0.08816485852003098,-0.10837043821811676,0.09871193766593933,-0.05650287866592407,-0.0726533904671669,0.092892587184906,0.13371749222278595,-0.16630585491657257,0.10379991680383682,0.311768114566803,-0.01873217523097992,-0.13847783207893372,0.0302470400929451,0.1097712442278862,-0.21285374462604523,0.18775668740272522,0.0768430233001709,-0.029972560703754425,0.10122568160295486,0.10530460625886917,-0.03876766562461853,0.07813014835119247,0.10258444398641586,-0.030129890888929367,-0.11631032079458237,0.05627669766545296,0.09708702564239502,-0.005903057288378477,-0.13919195532798767,-0.07355118542909622,0.20242393016815186,-0.2652120590209961,-0.16902342438697815,-0.09379110485315323,0.13836850225925446,0.22717580199241638
0011bdaad0054e3869deea571616416d,0.1030498519539833,-0.131173238158226,-0.16952884197235107,0.2220376431941986,0.16807089745998383,-0.0002751456922851503,0.05238194391131401,-0.1658838391304016,-0.03001726232469082,-0.1200086772441864,0.15351839363574982,-0.12672509253025055,-0.13287267088890076,-0.1217559203505516,0.25130197405815125,-0.006991149857640266,-0.047914884984493256,-0.1552034616470337,-0.04621253162622452,-0.022651445120573044,-0.02153073623776436,-0.18017366528511047,0.04600709304213524,-0.14647600054740906,0.012805568054318428,0.1279345601797104,0.061050910502672195,0.29027876257896423,-0.2262788563966751,-0.04334785044193268,0.17016200721263885,-0.10804947465658188,0.09321446716785431,-0.0059315478429198265,0.03968514874577522,0.10787588357925415,-0.1865091770887375,-0.33633187413215637,0.12939678132534027,0.19468002021312714,-0.11449535191059113,0.007914163172245026,-0.22030030190944672,-0.088741734623909,0.1667865812778473,-0.04410088062286377,0.04453428462147713,-0.14131762087345123,-0.04604725167155266,0.23097631335258484
002126ac6c94b0d88de291d30857127a,0.3274640440940857,0.2530718743801117,0.19827041029930115,-0.11177545040845871,-0.0015793824568390846,0.12582911550998688,0.12421593815088272,0.07569248974323273,-0.13676249980926514,0.10273174196481705,-0.00955354142934084,0.17351000010967255,-0.2624063193798065,-0.15716911852359772,0.19997692108154297,0.02265775576233864,-0.0232312623411417,0.07102440297603607,0.03537750616669655,-0.09493056684732437,-0.2623409032821655,-0.2710065543651581,-0.055343907326459885,-0.07537446916103363,0.19089096784591675,0.18959873914718628,0.23870211839675903,-0.12422212958335876,-0.03370196372270584,-0.07568348944187164,-0.014672873541712761,-0.1318328082561493,0.10168265551328659,-0.12964443862438202,0.02350858971476555,0.006175639573484659,-0.07122281938791275,0.1653214693069458,0.1790187656879425,-0.15680302679538727,0.022733598947525024,-0.15703833103179932,0.1756916493177414,-0.029286252334713936,-0.08124905824661255,0.1170768290758133,0.07886829227209091,-0.07089110463857651,0.06434610486030579,0.03025280497968197
004be4ab09e940a6039ceb4daffaad4e,0.09091611951589584,-0.155332550406456,0.01843029260635376,0.12706632912158966,-0.15019108355045319,0.19124026596546173,-0.04718270152807236,0.10300817340612411,0.1355108916759491,-0.07577738165855408,-0.17638520896434784,0.01921156421303749,0.13852287828922272,-0.22405420243740082,-0.03711230307817459,-0.025357462465763092,0.17901751399040222,-0.058662187308073044,0.08358263969421387,-0.1290409415960312,0.1485968381166458,0.027136193588376045,0.16760829091072083,0.038368962705135345,-0.15557953715324402,0.06487763673067093,-0.02635946311056614,0.0328204520046711,-0.0869312435388565,-0.12252922356128693,0.08209961652755737,-0.25768911838531494,0.23892605304718018,-0.09157759696245193,0.04023643583059311,-0.23325484991073608,0.16524213552474976,-0.028152337297797203,-0.1322208195924759,-0.060395948588848114,0.17430360615253448,-0.01581704616546631,0.20822279155254364,0.13590101897716522,-0.31356993317604065,-0.15416978299617767,0.2739606499671936,0.07622084021568298,-0.14724615216255188,-0.16408860683441162
0069496c8afc534128379ca063503a53,-0.07900293171405792,-0.15363378822803497,0.03564748913049698,0.051104407757520676,0.2147948443889618,-0.10563503205776215,-0.10880767554044724,0.28608599305152893,-0.003282124176621437,-0.23795728385448456,-0.039185285568237305,-0.07828402519226074,-0.12291346490383148,-0.20903973281383514,0.00856156088411808,0.03176935017108917,0.20526057481765747,-0.3269514739513397,-0.11309488117694855,0.029835600405931473,0.012648043222725391,0.04695691913366318,0.1854895055294037,-0.1409757137298584,0.02654186077415943,0.3100941479206085,0.2192760705947876,-0.12858572602272034,0.06137397140264511,-0.18300870060920715,-0.031743019819259644,0.10439680516719818,-0.0932622030377388,-0.029928646981716156,0.0427296943962574,0.054678112268447876,0.20766842365264893,0.04662268981337547,0.13042061030864716,-0.22553858160972595,-0.05026243254542351,0.02389591373503208,0.05688653886318207,0.10373648256063461,-0.13578608632087708,0.2104414850473404,-0.016317196190357208,-0.16622355580329895,0.13974761962890625,-0.0792267769575119
00d57276cf35d260533ebfa56d35ef5d,-0.02619822882115841,0.004610008560121059,-0.08322298526763916,0.10747874528169632,-0.17596237361431122,-0.12071093171834946,-0.2151717245578766,0.16189196705818176,0.04494485259056091,-0.19598515331745148,0.17155195772647858,-0.1360669732093811,-0.1538950651884079,-0.028504298999905586,0.0859413594007492,-0.027036774903535843,0.13997872173786163,0.0644729882478714,0.14055810868740082,-0.015599209815263748,0.1477009356021881,-0.14261391758918762,0.27514010667800903,0.09379103779792786,0.013186953961849213,0.18183551728725433,0.05839686840772629,0.020238298922777176,-0.08855492621660233,0.005078968591988087,0.24512338638305664,0.2520028352737427,-0.061436574906110764,-0.3085954487323761,-0.197208970785141,0.16950495541095734,-0.042612362653017044,-0.06162208318710327,-0.09186170250177383,-0.08992837369441986,0.0830327644944191,-0.022798145189881325,0.1574663519859314,0.052694171667099,-0.06195449084043503,-0.051475442945957184,-0.11314952373504639,-0.2658476233482361,0.2960878610610962,-0.038429830223321915
00e5e0119de4b158a15e50a19121ea2b,0.03688174858689308,0.0050374348647892475,0.13281875848770142,0.023616991937160492,0.0333155021071434,0.16545434296131134,-0.20481058955192566,-0.06027182564139366,0.043701011687517166,0.07477352768182755,-0.22936521470546722,-0.029767286032438278,-0.05555517226457596,0.08381950855255127,0.19775068759918213,-0.10994318872690201,0.3037753105163574,-0.1768798530101776,0.035089071840047836,-0.14442715048789978,0.1966690868139267,0.0088939955458045,-0.07456208765506744,0.07724989205598831,-0.11054851114749908,-0.002372979186475277,0.05614548176527023,0.16760754585266113,0.007790073752403259,0.004829732701182365,-0.1303892880678177,0.25638946890830994,0.10370504856109619,-0.07962704449892044,-0.01671287976205349,0.07877637445926666,0.16980038583278656,0.08991044759750366,0.21956555545330048,-0.16436097025871277,-0.07114750891923904,-0.02217518351972103,0.18608532845973969,0.1267005354166031,0.02443271316587925,-0.3600952625274658,0.3563292920589447,-0.0908161923289299,0.056399643421173096,-0.03461476415395737
01b0985cef77765657c025585d61bff9,0.1760920137166977,-0.07351505011320114,0.1069398745894432,-0.16501113772392273,-0.17237542569637299,0.08284831792116165,0.21106062829494476,0.1661311537027359,0.02181054838001728,0.1973404735326767,0.12788589298725128,0.20159238576889038,-0.21802015602588654,-0.16888581216335297,-0.04886343702673912,-0.16403572261333466,-0.14742843806743622,-0.010685229673981667,-0.21965429186820984,-0.04037102684378624,-0.12924563884735107,0.14435455203056335,0.04837604612112045,0.13366441428661346,-0.1088692843914032,0.010320628993213177,0.14653101563453674,0.11066535115242004,-0.10921844094991684,0.10860861837863922,0.06366632133722305,0.1694227159023285,0.13889718055725098,-0.1873156726360321,-0.1006864383816719,-0.09506435692310333,0.11754272878170013,-0.1325012445449829,0.2266310453414917,-0.09446827322244644,-0.23234157264232635,-0.03928542882204056,0.06909129023551941,-0.1153763085603714,0.056532569229602814,0.14277544617652893,-0.1908738613128662,-0.2833741009235382,0.042653486132621765,-0.04291302338242531
01d4ca4f18f40cc435ac2615c0081858,0.21533426642417908,0.09225481003522873,0.1240851953625679,0.0838676169514656,0.09962167590856552,-0.11766189336776733,0.10735856741666794,0.04493692144751549,0.025776080787181854,-0.2619052529335022,0.031455133110284805,-0.007425412535667419,0.10473660379648209,-0.07491622120141983,-0.09251934289932251,-0.2959207594394684,0.3301803469657898,-0.07000316679477692,0.27219048142433167,0.10049796849489212,0.15569846332073212,0.03935451805591583,-0.13358774781227112,-0.04800121858716011,-0.10942133516073227,-0.08460179716348648,0.29190266132354736,-0.0287972092628479,-0.22483356297016144,0.16018420457839966,0.05390277877449989,-0.085164375603199,0.1489294171333313,0.14824609458446503,0.11406588554382324,-0.14226408302783966,-0.01026123482733965,0.06374389678239822,0.08463786542415619,-0.08783965557813644,0.20809732377529144,-0.09004884213209152,0.19947662949562073,0.027799665927886963,0.06836696714162827,0.009839392267167568,0.04960760846734047,0.08417262881994247,0.14955337345600128,0.2041170448064804
01f3f27950959281a5682669871ae1e6,-0.09315928816795349,0.20550371706485748,0.10157396644353867,0.03161245211958885,-0.08849451690912247,0.1027074083685875,-0.06272981315851212,0.19447298347949982,0.0025869717355817556,-0.15410342812538147,-0.34270593523979187,0.26767605543136597,-0.2267855852842331,-0.24161604046821594,0.03320939838886261,0.013701535761356354,-0.079984650015831,-0.14569251239299774,0.12835663557052612,-0.0022143360693007708,-0.2217138558626175,-0.04982467740774155,0.07550790160894394,0.15785975754261017,-0.12257755547761917,0.1433747559785843,-0.17949336767196655,0.1461287885904312,-0.09106184542179108,-0.04109432175755501,-0.17205989360809326,-0.023824060335755348,0.20069389045238495,0.13038747012615204,0.17587792873382568,-0.1673869639635086,0.07980547845363617,-0.15665730834007263,-0.12571251392364502,0.024389401078224182,-0.06868286430835724,-0.16229380667209625,0.008172659203410149,-0.06280407309532166,-0.09553433209657669,0.12087572365999222,0.06767814606428146,-0.006133511196821928,-0.17353349924087524,0.20232973992824554
021e38b39694454ee67471520d814a35,0.2706097364425659,-0.11661592125892639,-0.12805067002773285,-0.15065518021583557,0.09420042484998703,-0.0653785765171051,0.010970303788781166,0.055590495467185974,-0.018318181857466698,-0.011570783331990242,0.03491394966840744,-0.2078016847372055,0.041516780853271484,-0.0906388908624649,-0.20127099752426147,-0.07329818606376648,0.3166191279888153,0.16347940266132355,0.04653114080429077,-0.12056931108236313,0.1614767163991928,0.050677940249443054,-0.019479703158140182,0.029975222423672676,-0.2902068793773651,0.03341289982199669,0.06941444426774979,0.2640020251274109,-0.2357882559299469,-0.029478436335921288,0.08819473534822464,-0.002789081074297428,0.11948361992835999,-0.09632694721221924,-0.18436020612716675,-0.14222130179405212,0.2464929223060608,-0.2202887386083603,0.1241421326994896,-0.01167809497565031,0.13356637954711914,-0.016384843736886978,-0.1190618947148323,0.17455527186393738,0.22681087255477905,-0.1416347771883011,0.12367241084575653,-0.04496762529015541,-0.07152150571346283,0.005792669486254454
0274cc2d42e2229af00ec1d978027d71,0.1819155514240265,-0.025313856080174446,-0.19955822825431824,0.1818554699420929,-0.07795190066099167,0.19882145524024963,0.09813862293958664,0.030119407922029495,0.11658157408237457,0.12148769199848175,0.08139768242835999,0.020897869020700455,0.09106255322694778,0.11987017840147018,-0.08032573014497757,-0.05387634411454201,0.04059640318155289,-0.22018404304981232,0.2790132462978363,0.036012399941682816,0.013497200794517994,0.02342277020215988,0.21527715027332306,-0.13124561309814453,0.14080394804477692,0.051594194024801254,0.055039167404174805,-0.071870818734169,-0.05407503992319107,-0.0404861718416214,-0.07383561879396439,0.04032496362924576,-0.1925647109746933,0.200354665517807,-0.18292778730392456,-0.2658381164073944,-0.1500108242034912,-0.33851146697998047,-0.1368626356124878,-0.02140343189239502,0.21163399517536163,0.0009825275046750903,0.1391095370054245,0.007533390074968338,0.0010515270987525582,-0.09385674446821213,-0.02612747624516487,-0.3162548542022705,0.09848161041736603,-0.11337468028068542
02ca4f81f486274040a3affe32b767f0,0.09123475104570389,0.10017430782318115,0.0769103392958641,0.1370227038860321,0.13898976147174835,-0.10967859625816345,0.09915369749069214,-0.13568270206451416,-0.08356428146362305,-0.09422029554843903,-0.13616801798343658,0.231695294380188,-0.06082199141383171,0.12463708966970444,0.07122357934713364,-0.047970131039619446,0.05485415458679199,-0.26985347270965576,-0.08907347172498703,-0.009248960763216019,0.1812290996313095,0.15826605260372162,0.14668713510036469,0.32146981358528137,0.16322724521160126,0.04637102037668228,-0.033747170120477676,-0.12508361041545868,-0.009140217676758766,0.22309264540672302,0.12285265326499939,-0.21865533292293549,0.13525092601776123,0.0056617078371346,0.10764850676059723,-0.09814684838056564,-0.23440217971801758,0.13730131089687347,0.09194038063287735,3.0172745027812198e-05,0.15338730812072754,-0.23385336995124817,-0.10971987247467041,0.02260303497314453,0.10988336056470871,0.10909227281808853,0.2708125710487366,0.06832127273082733,0.09728627651929855,0.18364734947681427
02fe23f7fa7ab10b56a411fe6e7f5564,-0.09791374206542969,-0.00045553824747912586,-0.11291190981864929,-0.12162410467863083,-0.014855959452688694,-0.01554118748754263,-0.046605754643678665,0.004731572698801756,0.0868583619594574,-0.11418116092681885,0.1085585355758667,0.12185715138912201,-0.02825886383652687,-0.2885209918022156,0.21237385272979736,0.17309407889842987,0.1818423569202423,-0.3046974837779999,-0.21631711721420288,-0.14447346329689026,0.26183372735977173,0.043298784643411636,0.024072283878922462,-0.15296420454978943,0.2219686508178711,0.13550639152526855,0.06429534405469894,0.20606206357479095,-0.05182534083724022,0.0743408203125,-0.19229674339294434,0.1950230896472931,0.06787719577550888,0.05849726125597954,-0.16395840048789978,-0.04490569233894348,-0.0842430517077446,0.12528759241104126,-0.08543840795755386,-0.07058322429656982,-0.13865429162979126,-0.1233554482460022,0.1994452029466629,-0.0525677315890789,0.10342530906200409,-0.10967151820659637,0.1686008870601654,0.02488299459218979,0.17378392815589905,0.1936476081609726
030c7c1d228e8e28bdb6c1129c1a4b50,-0.030574586242437363,-0.14825378358364105,0.20124097168445587,-0.11122328788042068,-0.05156460776925087,-0.10447888821363449,0.11740364134311676,0.23194199800491333,-0.11298707872629166,-0.09638068825006485,-0.039984334260225296,0.3319489359855652,-0.16593033075332642,-0.10881029814481735,0.19131283462047577,0.09124921262264252,-0.04802617058157921,0.11266707628965378,0.046175938099622726,-0.06897079199552536,0.17998220026493073,-0.0860254168510437,0.05363801121711731,-0.1420741081237793,-0.09878495335578918,0.038635317236185074,0.13793416321277618,-0.10747610032558441,0.0719912052154541,0.1676723062992096,0.16496075689792633,0.11258270591497421,-0.0008274993160739541,-0.23159107565879822,0.11779788881540298,-0.08731958270072937,0.05528033524751663,0.058371078222990036,-0.1683717668056488,0.05375099182128906,0.15940888226032257,-0.15468427538871765,0.15216600894927979,-0.19772769510746002,0.07144198566675186,0.15468591451644897,0.2640443444252014,-0.216451495885849,-0.11618344485759735,0.204042449593544
03c5ed2b58a38ef13679554af378086a,-0.09973984956741333,0.09211767464876175,-0.04355158284306526,-0.031173260882496834,-0.19852213561534882,-0.09361856430768967,0.11369331181049347,0.08160731196403503,0.06011340767145157,-0.3016435205936432,0.10844019800424576,-0.058789998292922974,0.08390872925519943,-0.1241861954331398,-0.20522868633270264,-0.27005234360694885,-0.06273152679204941,-0.18878918886184692,0.08413128554821014,-0.06276560574769974,-0.10379888117313385,0.07252513617277145,0.1539781391620636,0.18922796845436096,-0.26496413350105286,0.08767561614513397,0.1400848776102066,0.23995853960514069,-0.05767650157213211,0.10017714649438858,0.16766677796840668,-0.11065886169672012,0.32082998752593994,-0.1384727507829666,-0.16544702649116516,-0.13677307963371277,0.17798170447349548,-0.14619289338588715,-0.06586134433746338,0.1252402812242508,-0.06442240625619888,0.12064537405967712,-0.10849200189113617,0.09016098827123642,0.06425933539867401,0.12438946217298508,0.015609612688422203,-0.0777178406715393,0.15131334960460663,0.0014055344508960843
0435a982afdcf944fae1282161b0dc57,0.09358862042427063,0.09272672235965729,-0.14157909154891968,0.12588174641132355,-0.2045106589794159,0.1449924260377884,-0.11805177479982376,-0.06979715824127197,0.07360943406820297,-0.05855085328221321,-0.050556618720293045,-0.16765984892845154,-0.17327094078063965,-0.03648533672094345,-0.16422943770885468,0.012923767790198326,0.04539545625448227,0.12738187611103058,-0.029157035052776337,-0.05594328045845032,-0.27237972617149353,-0.26000797748565674,0.10999144613742828,0.10221799463033676,0.1716727465391159,-0.058630701154470444,0.16151796281337738,-0.024527553468942642,0.010754907503724098,-0.17231714725494385,-0.07196792960166931,-0.04332958906888962,0.1057145819067955,0.12022633105516434,-0.281734436750412,-0.0632244274020195,-0.15976294875144958,-0.151720330119133,-0.10890188813209534,-0.013486704789102077,-0.036426376551389694,-0.25545695424079895,-0.1509571522474289,0.14772416651248932,-0.15059936046600342,0.1263434737920761,-0.11356221139431,-0.21325768530368805,0.31918519735336304,-0.06588007509708405
04df3081d24d8c79c63e4d87189c2e38,-0.13483759760856628,0.08441025763750076,-0.06418753415346146,-0.1371511071920395,0.1840522140264511,0.14915606379508972,-0.02470702864229679,-0.06474229693412781,-0.07906707376241684,0.10965077579021454,0.168121337890625,0.14959333837032318,0.05433882400393486,-0.004162153694778681,0.26897868514060974,-0.15633352100849152,-0.12807337939739227,-0.13359181582927704,-0.09387584775686264,0.10062626749277115,0.02448223903775215,-0.0653500035405159,0.16644829511642456,-0.08741214126348495,0.12763164937496185,0.08985068649053574,-0.039093662053346634,0.22900152206420898,-0.30981874465942383,0.28021717071533203,0.020993733778595924,0.2127501368522644,-0.020759059116244316,-0.08330245316028595,0.07584873586893082,0.028081800788640976,0.0844007208943367,-0.2718519866466522,0.05143151432275772,0.22684161365032196,0.19113506376743317,-0.029138706624507904,-0.08145707845687866,0.05553963780403137,-0.056452393531799316,-0.09961992502212524,0.253964900970459,0.02516265958547592,0.21847407519817352,0.08997461199760437
05ba2564ebc1e0b8e8fd80cc8bd09f8b,0.31173139810562134,-0.07604954391717911,-0.04499301686882973,0.06489104777574539,0.15321147441864014,-0.22477613389492035,-0.2717168927192688,0.21714523434638977,-0.15017488598823547,-0.03735358640551567,0.03175542131066322,-0.021971581503748894,0.14633357524871826,0.2353512942790985,0.28071966767311096,-0.18071293830871582,0.07581929862499237,-0.006584209389984608,0.1234094575047493,-0.04029911383986473,0.04264611005783081,0.030088817700743675,-0.12210217118263245,-0.0016257899114862084,0.1092645451426506,0.32676559686660767,0.0568055622279644,-0.0012999535538256168,-0.22732989490032196,-0.12291143089532852,0.011604196391999722,0.132063627243042,0.058578405529260635,-0.05536274611949921,-0.0068853129632771015,0.09825795888900757,-0.17154254019260406,-0.027092430740594864,0.14371661841869354,0.09257812798023224,-0.033460866659879684,0.019108764827251434,-0.026936441659927368,-0.11212131381034851,-0.10585599392652512,-0.19332121312618256,0.08709638565778732,-0.2124742865562439,0.10331104695796967,-0.18217061460018158
06f5dbaa4a96fe724324b2583c3f05ee,-0.11867193132638931,-0.06631737947463989,-0.05388446897268295,0.22516891360282898,0.14509275555610657,-0.12684643268585205,0.15927375853061676,0.09957147389650345,-0.02912004292011261,-0.1839197874069214,-0.13585537672042847,0.05609810724854469,-0.10818786919116974,-0.15320709347724915,-0.006923854351043701,0.1569632887840271,-0.030916927382349968,0.060924164950847626,0.03605567663908005,0.08011241257190704,0.17355380952358246,0.1277208924293518,0.19014258682727814,-0.18305957317352295,-0.22547172009944916,-0.11189157515764236,0.3522154986858368,0.05274704843759537,0.1563759297132492,-0.14081045985221863,0.25003036856651306,-0.05490012466907501,0.053326576948165894,-0.10583342611789703,-0.20786085724830627,-0.16412821412086487,0.047071490436792374,0.028976881876587868,0.028052695095539093,0.01154237985610962,0.08612524718046188,-0.14308865368366241,-0.1696620136499405,-0.17307066917419434,-0.18452800810337067,-0.1427849978208542,0.0011514817597344518,-0.14735883474349976,0.24403682351112366,-0.01889057457447052
07898c0d795ba16b40cc5f7ce5b509b1,0.07209797203540802,0.030133215710520744,-0.14550504088401794,-0.04980522766709328,-0.052439115941524506,0.07163099944591522,-0.017497751861810684,0.1519894301891327,0.14770375192165375,-0.11120633780956268,-0.20368799567222595,0.20625412464141846,-0.11439614742994308,-0.10272162407636642,0.17028148472309113,0.18153859674930573,-0.08285113424062729,0.01019758079200983,-0.016969989985227585,0.05164308100938797,-0.2392539381980896,0.06711950898170471,0.19215676188468933,-0.18962864577770233,-0.16621366143226624,-0.16223320364952087,0.09527336061000824,0.06958365440368652,-0.1339489072561264,0.2836591303348541,0.23510713875293732,0.11358670890331268,0.13691091537475586,-0.18124230206012726,-0.17895707488059998,0.13211403787136078,0.1464168280363083,0.07420693337917328,-0.02264108695089817,0.017002377659082413,0.36390483379364014,0.11203727126121521,-0.016726871952414513,0.0899057686328888,0.03437410667538643,-0.19310443103313446,-0.046424027532339096,-0.13903100788593292,0.1182817593216896,-0.006455455906689167
079eff6629ee7f411ccb09ce7dae0cdb,-0.15839733183383942,0.06119208410382271,-0.04890504106879234,0.28698065876960754,0.06900426000356674,-0.10233642160892487,-0.1101825013756752,-0.027998188510537148,-0.07898712158203125,-0.15090550482273102,0.0649445578455925,0.11553449183702469,0.12122809886932373,0.13351519405841827,0.215254545211792,0.09674124419689178,0.05015214532613754,-0.11496789008378983,-0.1725892871618271,-0.029689278453588486,-0.15423233807086945,-0.3557848632335663,-0.12883584201335907,0.09858382493257523,-0.20251628756523132,0.09639007598161697,-0.04123456031084061,0.2565144896507263,0.09709981083869934,0.011373062618076801,-0.05665719881653786,-0.10822983086109161,0.10435901582241058,-0.19963563978672028,-0.24882027506828308,-0.14142301678657532,0.10276613384485245,0.07347071915864944,0.2509087920188904,0.05612480267882347,0.043547093868255615,-0.1859927773475647,0.05024024099111557,0.053008783608675,-0.003323832293972373,-0.13436013460159302,-0.042433176189661026,-0.03363504260778427,0.2735365033149719,0.07567783445119858
07b5a85b7519c0dee8fd147ea40ffabb,-0.08399271965026855,0.13833600282669067,0.14561827480793,0.22262853384017944,-0.01946200430393219,0.11599578708410263,0.05825832486152649,-0.10751046240329742,0.16720816493034363,0.06546155363321304,-0.08518952131271362,0.2653431296348572,-0.013986735604703426,-0.21854721009731293,-0.11556485295295715,-0.05811557173728943,-0.000501113710924983,0.03995200991630554,0.16603055596351624,0.08999510854482651,0.17062745988368988,-0.0671691745519638,0.06986898928880692,-0.07397347688674927,-0.04633420705795288,0.11626993864774704,0.2597816288471222,-0.0947813093662262,-0.04473666101694107,0.014730222523212433,0.19222280383110046,-0.11006435006856918,0.11804326623678207,-0.18923787772655487,-0.1355840265750885,-0.24747800827026367,-0.025150973349809647,0.17802448570728302,0.1620853841304779,-0.10952267050743103,-0.15660367906093597,-0.003985484130680561,-0.1358845978975296,-0.3028853237628937,0.06444726884365082,-0.2607075273990631,0.24839763343334198,0.003005220787599683,-0.07958853989839554,0.010914495214819908
0828d603e2a37a7f894a122288695b46,-0.077132947742939,0.0045585329644382,0.13684386014938354,0.08837708830833435,0.024493757635354996,0.15647797286510468,-0.17714789509773254,0.2155131697654724,-0.21235354244709015,-0.2674713432788849,-0.03444467857480049,-0.02429291419684887,-0.14677585661411285,-0.03908677399158478,-0.11074982583522797,-0.08741980046033859,0.2753773033618927,-0.0011227343929931521,0.29635244607925415,0.07515920698642731,0.061057813465595245,-0.1912645697593689,-0.04475943371653557,-0.01975458860397339,-0.04096640273928642,0.2226940393447876,0.20594988763332367,0.16530752182006836,-0.16351816058158875,0.186728373169899,0.04755041003227234,0.2220434844493866,0.010747208259999752,-0.15976105630397797,-0.05172710493206978,0.0893680602312088,0.14114391803741455,0.16952748596668243,-0.18505007028579712,-0.008482534438371658,-0.016087690368294716,0.12055361270904541,-0.17445747554302216,0.02665727585554123,0.005662557203322649,-0.24434207379817963,0.1333380490541458,0.05014912039041519,0.03835652023553848,0.1013883501291275
08414a767401086002ceafa67e2bcc85,-0.1199820414185524,0.087566077709198,0.20192597806453705,0.31154054403305054,0.11073490232229233,0.1832161396741867,0.1375386267900467,0.15711404383182526,0.1633736938238144,-0.004227922298014164,-0.029927778989076614,0.019248470664024353,-0.08008652925491333,0.13121937215328217,0.09284129738807678,-0.18281736969947815,0.20911872386932373,-0.20527008175849915,0.13588067889213562,0.1686459630727768,0.17420648038387299,0.048910751938819885,-0.018997836858034134,-0.13525442779064178,-0.24966926872730255,-0.04458228871226311,0.16315288841724396,0.17683885991573334,-0.09765467792749405,0.06500261276960373,0.17103411257266998,-0.0339067317545414,0.1447775661945343,0.22977420687675476,0.05941082909703255,-0.038742758333683014,0.10963369905948639,-0.1521783024072647,-0.16011887788772583,-0.1379380077123642,-0.01454025600105524,-0.11988924443721771,0.0871376022696495,-0.23207323253154755,0.09475237131118774,0.17075327038764954,0.06458699703216553,-0.022800730541348457,0.16949337720870972,0.016132747754454613
085cf0c5370d1bef3f7117b582c00041,0.19969472289085388,-0.022318197414278984,-0.09246338903903961,0.017260121181607246,0.24584178626537323,-0.12069098651409149,-0.14371120929718018,-0.11624335497617722,-0.013587101362645626,-0.27840539813041687,0.036524586379528046,0.0629911944270134,-0.13618013262748718,0.1706135869026184,0.04816155135631561,0.2308841198682785,0.15102730691432953,-0.2272256761789322,-0.13602757453918457,-0.24509763717651367,-0.004062889143824577,0.06635875254869461,-0.00985556561499834,0.06045443192124367,-0.048919856548309326,-0.05260302871465683,0.19712838530540466,-0.008804134093225002,0.1311396211385727,-0.2503586709499359,-0.0821121335029602,0.09884516149759293,-0.03996511921286583,-0.1413857787847519,-0.156166210770607,-0.2642385959625244,-0.11555686593055725,0.03946024179458618,-0.1779961884021759,0.192775160074234,0.20916275680065155,-0.07060731947422028,0.09179787337779999,-0.04511669650673866,0.048315491527318954,0.06852685660123825,0.06735602766275406,-0.2150779366493225,0.03533902019262314,0.18928715586662292
0abd5fca9cd32563e5ae7e7495edcfb9,0.20026853680610657,0.15192078053951263,-0.1024528369307518,-0.15827833116054535,0.10091652721166611,0.06055804342031479,0.15681412816047668,0.02509845420718193,0.13139702379703522,-0.19265805184841156,-0.011498432606458664,0.16856655478477478,0.113324373960495,0.0010987587738782167,0.19871699810028076,0.20657619833946228,0.053863756358623505,-0.1046137884259224,-0.021213779225945473,-0.007796781603246927,-0.2594156265258789,-0.3133745789527893,0.07051282376050949,0.008004630915820599,-0.25286048650741577,0.13053204119205475,-0.06360018253326416,0.16340765357017517,0.0630469098687172,0.025943003594875336,0.11775533854961395,-0.10741876810789108,0.006914461497217417,0.05071442201733589,-0.1853078454732895,-0.16945642232894897,-0.16395655274391174,0.18868090212345123,-0.16009479761123657,-0.01497386023402214,0.15219753980636597,-0.13916133344173431,0.26268643140792847,-0.10456566512584686,0.19324956834316254,-0.049217287451028824,-0.015813836827874184,-0.15536119043827057,-0.12807656824588776,0.023449094966053963
0c01a6f2a0db228cbc9a2576e65c253f,0.07514002174139023,0.13854949176311493,-0.14686524868011475,0.31597456336021423,-0.11541830748319626,-0.17671971023082733,-0.1002848893404007,-0.038332946598529816,0.1935606449842453,-0.056617267429828644,-0.04362671449780464,0.16616761684417725,-0.08254152536392212,-0.09434440732002258,0.10366765409708023,-0.12012514472007751,-0.10595332086086273,-0.2100481390953064,0.16217342019081116,0.18494461476802826,-0.09416419267654419,-0.20431704819202423,0.1926068812608719,-0.03205515444278717,-0.26618361473083496,0.12416258454322815,0.016755400225520134,0.11583933979272842,0.1813110113143921,-0.09611370414495468,0.0980834886431694,0.06557346135377884,0.025332443416118622,-0.17615379393100739,0.1704218089580536,-0.13282039761543274,0.21983753144741058,-0.10920846462249756,0.14564478397369385,-0.047403641045093536,0.10891217738389969,0.014591899700462818,-0.15145458281040192,-0.09179665148258209,0.17557218670845032,0.002268547657877207,-0.1975979506969452,-0.11750433593988419,0.18997475504875183,0.02682523801922798
0cb2ba27a610970ab5ec03820bbbdb25,0.2766963243484497,0.17229124903678894,-0.07548826187849045,0.2568521797657013,-0.17064179480075836,0.12175442278385162,-0.19558334350585938,-0.008312012068927288,-0.13976511359214783,-0.010415063239634037,0.12903179228305817,-0.053437888622283936,-0.14614257216453552,0.16821102797985077,0.2852630019187927,0.10792344808578491,0.20125143229961395,-0.1842329204082489,0.08469392359256744,-0.21484704315662384,-0.22772066295146942,-0.046205680817365646,0.005729797296226025,-0.1701621413230896,0.081364706158638,0.15267401933670044,0.022347480058670044,-0.024824965745210648,-0.13528837263584137,0.011378721334040165,-0.07594405859708786,-0.24755096435546875,0.18742577731609344,0.11441592127084732,0.05658562108874321,-0.07858780771493912,-0.07240236550569534,-0.1300799548625946,-0.05089295655488968,0.005990148987621069,0.05020329728722572,-0.02774231694638729,0.019980479031801224,-0.1457952857017517,-0.081636443734169,0.23672547936439514,-0.14082711935043335,-0.11668436974287033,0.1649259626865387,0.0054923235438764095
0d0f31bcbde97e9f606c9fb2cb58e63c,-0.05047666281461716,0.18969115614891052,-0.00834239087998867,-0.030051684007048607,0.050349459052085876,0.24854636192321777,-0.1343124508857727,0.07841614633798599,-0.0766582116484642,0.10248364508152008,-0.20310243964195251,-0.12671202421188354,-0.0695151537656784,0.0015328855952247977,0.18125542998313904,0.029378153383731842,0.06051189452409744,-0.19363681972026825,-0.06007029116153717,0.02252262644469738,-0.10170771181583405,-0.25998517870903015,0.07754424214363098,-0.024411356076598167,-0.11375699192285538,0.07105764746665955,-0.05403190478682518,-0.11257485300302505,-0.02097228914499283,-0.07487316429615021,-0.09842994809150696,-0.16897732019424438,0.10834300518035889,-0.1972643882036209,-0.3261302709579468,-0.053876906633377075,-0.11841242015361786,-0.1323494166135788,0.17908211052417755,0.21685542166233063,0.2282937467098236,-0.2736068367958069,-0.013540461659431458,-0.15083622932434082,-0.19702419638633728,0.12760071456432343,-0.011607380583882332,-0.06711351871490479,-0.18185363709926605,-0.19697298109531403
0dd56f80e70d71d7d641dc27378c10ce,-0.0598449781537056,-0.18558132648468018,0.22098146378993988,-0.051265377551317215,-0.013480627909302711,0.18036699295043945,-0.1530676931142807,-0.11469133198261261,-0.16148610413074493,-0.14665745198726654,-0.13309134542942047,-0.016950935125350952,0.2321072220802307,0.08247065544128418,0.22567158937454224,0.21699398756027222,0.03979038819670677,-0.09400072693824768,0.0564151257276535,0.14093030989170074,-0.056976981461048126,-0.12301751226186752,0.19020342826843262,0.0022151959128677845,0.04172255098819733,0.06395457684993744,0.018810829147696495,-0.17007870972156525,-0.061839111149311066,-0.035539623349905014,0.2059205323457718,0.08260256052017212,-0.16794510185718536,-0.1785741001367569,0.21165816485881805,0.15580220520496368,0.22316713631153107,-0.03299824893474579,-0.01348538976162672,0.12299487739801407,0.18017397820949554,-0.15534625947475433,0.07287672162055969,-0.1710766702890396,-0.11400353163480759,-0.30457326769828796,-0.09453099220991135,0.07392346858978271,-0.006684743799269199,0.18094855546951294
0e0a2a4f8659a31c04626f0008e76bf3,-0.11268986761569977,0.04664861783385277,-0.14825189113616943,-0.0018993256380781531,-0.20626430213451385,0.06922005861997604,-0.26672840118408203,-0.006900174543261528,0.1494225561618805,0.1711891144514084,0.057088397443294525,0.14253194630146027,-0.11036098748445511,-0.13204263150691986,0.15775823593139648,-0.18524600565433502,0.04205075651407242,-0.20686383545398712,-0.07180992513895035,-0.1533978283405304,0.010768122971057892,-0.1551952064037323,0.04216381907463074,0.0019827275536954403,-0.2980002164840698,-0.150919109582901,0.2983722388744354,-0.050484444946050644,-0.11105787754058838,-0.09596314281225204,0.1335252970457077,0.02244815044105053,-0.1626506894826889,-0.14961998164653778,-0.12830238044261932,0.21632064878940582,0.12318965047597885,-0.06661595404148102,-0.15345466136932373,-0.12585577368736267,0.008136696182191372,-0.110270656645298,-0.10223722457885742,-0.16908414661884308,-0.2671352028846741,-0.08068817853927612,0.06800353527069092,0.0693509429693222,-0.16740138828754425,0.02510731853544712
0e0b1f19c46fbca1d54d12504a195680,0.06349842995405197,0.1740383803844452,-0.12930326163768768,0.17083030939102173,0.2391405999660492,0.04539497196674347,-0.0801459401845932,0.07677772641181946,-0.0662187859416008,-0.2975948452949524,-0.22989468276500702,0.11878135800361633,0.08150533586740494,0.03712723031640053,0.005133368074893951,-0.28185033798217773,-0.13848517835140228,0.1134825274348259,-0.10017672926187515,0.034490279853343964,0.08570018410682678,-0.2332669049501419,0.11818721890449524,-0.08860715478658676,0.15669456124305725,-0.13953115046024323,0.135933980345726,0.008316186256706715,-0.2811242640018463,-0.12492195516824722,0.12640807032585144,-0.021039970219135284,0.2703707218170166,-0.27014562487602234,-0.078003890812397,0.08088628202676773,-0.10435082018375397,-0.1252310574054718,-0.09109573811292648,-0.00906496774405241,0.10124099254608154,0.08710190653800964,-0.051363278180360794,-0.12718135118484497,-0.12948544323444366,-0.050083477050065994,-0.012787463143467903,0.04540683329105377,0.20091407001018524,0.0902896299958229
0ebb2e72ca86d029f4a539d245388b95,0.2243066430091858,0.015948615968227386,-0.13825693726539612,0.21925336122512817,-0.19845424592494965,0.07544106245040894,-0.2083398699760437,-0.009269678965210915,0.1261812448501587,-0.1933770328760147,0.1160428524017334,0.21040692925453186,-0.12585020065307617,0.0059189642779529095,0.1911429464817047,0.042565252631902695,0.1035216748714447,-0.22211845219135284,-0.13693790137767792,-0.13008303940296173,0.22631636261940002,0.15928713977336884,-0.02879779413342476,-0.09758320450782776,-0.019743584096431732,0.20133723318576813,0.06101188063621521,0.15558680891990662,0.09423986822366714,0.007795811165124178,0.06568534672260284,-0.03200395405292511,0.08457016944885254,0.1417781561613083,-0.25557491183280945,-0.10787911713123322,-0.07893329113721848,-0.1374337524175644,-0.0804317370057106,-0.007880222983658314,0.018092265352606773,0.024555491283535957,-0.20510311424732208,0.07472863048315048,-0.13439127802848816,-0.2745969295501709,0.12802965939044952,0.11288676410913467,-0.10594812035560608,0.2105495035648346
0ebe600069d839750aefdcbdcdcc2b79,0.005440369714051485,-0.16537867486476898,-0.05787021666765213,0.2628946900367737,-0.08416926860809326,0.010094515979290009,0.07629229873418808,0.09329250454902649,0.19823217391967773,0.12565550208091736,0.024686157703399658,0.23020054399967194,-0.05759427323937416,-0.24950340390205383,0.004948811139911413,0.08082333952188492,0.1366414576768875,-0.13199055194854736,0.06963057816028595,0.031620558351278305,-0.05058850720524788,-0.2910745441913605,0.05114585533738136,-0.19242917001247406,0.007008456625044346,0.15806646645069122,-0.11340585350990295,0.1683286428451538,-0.05483975633978844,-0.08267182111740112,0.007172383833676577,0.049892544746398926,0.019698239862918854,0.06158579885959625,0.026812884956598282,-0.1737900972366333,-0.18905840814113617,0.17559529840946198,0.018251115456223488,0.019933925941586494,0.1994343250989914,-0.3448459208011627,-0.10587353259325027,-0.20156505703926086,-0.23246796429157257,0.1638195663690567,0.14709991216659546,-0.10670985281467438,-0.11129764467477798,0.10450680553913116
0fdf763fd328aaf8ab7759fcea494f14,-0.0853552594780922,0.07064581662416458,-0.15368574857711792,-0.080863818526268,0.07903920114040375,0.1261111944913864,-0.03480372950434685,-0.12264373153448105,-0.002140399068593979,0.019548604264855385,-0.048148225992918015,-0.16038042306900024,-0.1669444441795349,-0.19785872101783752,0.04433479160070419,-0.25628137588500977,0.2692334055900574,-0.08582747727632523,0.13086216151714325,-0.04422825947403908,-0.23340146243572235,0.08437013626098633,0.03811692073941231,0.19000592827796936,-0.04828673228621483,-0.08246700465679169,0.2895074784755707,0.11546160280704498,-0.032085005193948746,-0.23185989260673523,0.16709062457084656,-0.003041562857106328,-0.1618565320968628,0.050879478454589844,-0.2630259096622467,-0.1834200769662857,-0.1632360816001892,-0.09253783524036407,-0.08430270105600357,0.0004325429326854646,0.19236791133880615,-0.1800014078617096,0.12333372980356216,-0.20549911260604858,0.06746271252632141,-0.09429427236318588,0.11061730235815048,0.07930628210306168,0.16851820051670074,0.08859635889530182
1000fps,-0.10780254006385803,0.166997030377388,0.1859663873910904,-0.32872655987739563,-0.18044264614582062,0.15880632400512695,0.1611037403345108,-0.043256405740976334,0.07271061837673187,0.08175654709339142,-0.22574937343597412,0.06218025088310242,0.045335713773965836,-0.1457160860300064,-0.20075958967208862,0.016713455319404602,-0.29391658306121826,0.18472228944301605,-0.14927184581756592,0.07569906115531921,-0.2028818130493164,0.11232385784387589,0.054052047431468964,0.0697174221277237,0.06854314357042313,0.1830221563577652,-0.07464516907930374,-0.056814972311258316,-0.1253742277622223,0.2302355170249939,-0.00817708671092987,-0.02807801403105259,-0.007601170800626278,-0.12768468260765076,0.1294746994972229,-0.07748440653085709,0.28837817907333374,0.02785496413707733,0.14723552763462067,0.030260277912020683,0.12866373360157013,0.23012305796146393,-0.014780406840145588,-0.08622205257415771,0.13987939059734344,-0.012130877003073692,0.07251805812120438,0.10854992270469666,-0.07518680393695831,0.09837444126605988
10831e77bc642f7e2c4f8fb4ac46c6b3,0.18783597648143768,0.07487465441226959,0.08363299071788788,0.13161060214042664,-0.26374754309654236,0.18396185338497162,-0.08274883031845093,-0.17201334238052368,0.05006679520010948,-0.1850038468837738,0.18230865895748138,0.15909011662006378,-0.05632568895816803,0.05237504839897156,-0.0011751832207664847,-0.1713680773973465,0.01854291744530201,0.10039486736059189,-0.23625525832176208,0.09989248216152191,-0.007714929524809122,-0.055635880678892136,0.14186936616897583,-0.028375018388032913,-0.10393352061510086,0.11684495210647583,0.01901819556951523,0.1284693330526352,-0.2444351464509964,-0.06609416753053665,-0.00201389635913074,-0.08508748561143875,-0.06408476084470749,0.12996993958950043,-0.2235824018716812,-0.20213602483272552,-0.12825895845890045,-0.24385860562324524,0.2279861718416214,0.10093481093645096,0.13741543889045715,0.01042493898421526,-0.07980188727378845,0.16880418360233307,-0.09813879430294037,0.08300222456455231,-0.20499743521213531,-0.03722190111875534,0.10472606122493744,-0.2769879996776581
11b799b793c20524d59dfd0a0f81fda9,0.13907235860824585,0.36554574966430664,0.07031120359897614,-0.1304343193769455,0.00215188879519701,-0.03933723270893097,-0.014969143085181713,0.2310587763786316,0.15943549573421478,0.003374859457835555,0.07882405817508698,0.1897278130054474,-0.06408967822790146,0.08481322228908539,0.0367581881582737,0.08491488546133041,-0.026075270026922226,0.10921471565961838,-0.182346373796463,0.14692950248718262,0.12157134711742401,-0.0383329801261425,-0.08533816039562225,-0.054306864738464355,-0.28978246450424194,0.23560547828674316,0.043349817395210266,0.055775877088308334,-0.07125310599803925,-4.5515424318409714e-08,0.03214570879936218,-0.004832180682569742,-0.09663330018520355,0.21566790342330933,-0.261278361082077,0.06072693690657616,-0.03463160991668701,0.17203639447689056,-0.17840275168418884,-0.012732372619211674,-0.16632094979286194,-0.14569248259067535,0.1951214075088501,0.15968766808509827,0.1468164622783661,0.08712762594223022,0.2514496445655823,-0.10490573197603226,0.13657228648662567,-0.11310923099517822
12821f571e1d94a54d2dc285a141cbd7,-0.13283661007881165,0.05414746701717377,-0.032208703458309174,0.1919819712638855,0.22106938064098358,0.16850829124450684,-0.34580373764038086,-0.023146729916334152,0.16134102642536163,-0.11409252882003784,-0.0885934978723526,-0.07204203307628632,0.0810772180557251,-0.003859240561723709,-0.060512494295835495,-0.08104801923036575,0.26944923400878906,-0.16022691130638123,0.02946355566382408,-0.10425817966461182,-0.1572364866733551,0.12079156190156937,-0.02565370500087738,0.1809471994638443,0.10743536055088043,-0.0449344776570797,0.2060389220714569,-0.12273487448692322,-0.20128712058067322,-0.13752204179763794,-0.11171233654022217,-0.050359174609184265,0.10765212774276733,-0.018731845542788506,-0.10256712883710861,-0.13148429989814758,-0.09385889768600464,-0.05242658406496048,-0.018986085429787636,-0.13198010623455048,-0.17832820117473602,-0.12026657164096832,-0.21344813704490662,-0.20339493453502655,-0.07478060573339462,0.042015619575977325,-0.11568332463502884,-0.3283190429210663,0.0784360021352768,-0.1001238077878952
12ee288aac5274f8e9b079aa6481d5d2,-0.1289161741733551,0.12461463361978531,0.016888251528143883,0.15215443074703217,0.22229619324207306,0.1667289137840271,0.049261827021837234,0.2553635537624359,-0.136452779173851,-0.24434706568717957,0.035091832280159,-0.06745100766420364,0.14293695986270905,-0.08744163066148758,0.025454269722104073,0.07582420855760574,0.0737927258014679,-0.008895798586308956,0.0740656852722168,0.2835041582584381,0.19169339537620544,-0.07037805765867233,-0.065085269510746,-0.12320433557033539,-0.3263915777206421,0.12924188375473022,-0.019848806783556938,-0.09186065942049026,-0.19650474190711975,0.2786993384361267,0.07771732658147812,-0.11753633618354797,0.34038805961608887,-0.07707329839468002,0.04823498800396919,0.06627905368804932,-0.05282185971736908,-0.09914769977331161,0.11951018869876862,0.006590577308088541,-0.03822984918951988,-0.12000882625579834,0.05396164581179619,0.1372193694114685,-0.07502102106809616,0.003997937310487032,0.1678287535905838,0.019843898713588715,0.178507000207901,0.03362535685300827
134b081afc5af868b7ee1bc650e0287a,0.040823228657245636,-0.14416541159152985,-0.2662145793437958,0.2146642655134201,0.13873407244682312,0.2101564258337021,0.049839917570352554,0.22702987492084503,-0.110687755048275,-0.08348962664604187,0.14887461066246033,0.2573617994785309,-0.08564988523721695,-0.04863183945417404,-0.021093720570206642,-0.01702035963535309,-0.0733727291226387,0.15629473328590393,0.24922287464141846,0.023585764691233635,0.08334168791770935,0.004761252086609602,-0.009779437445104122,0.24433419108390808,0.12208819389343262,-0.0657152310013771,-0.13472972810268402,0.16205549240112305,-0.12152831256389618,0.16754986345767975,-0.002146342536434531,0.23183871805667877,0.005031269043684006,0.19171273708343506,-0.18066717684268951,-0.14106343686580658,-0.05545720085501671,-0.07117515057325363,-0.06223319470882416,-0.11904418468475342,-0.024500247091054916,0.1036520004272461,0.15441912412643433,0.065714031457901,-0.05609079450368881,0.05933600664138794,0.33532822132110596,0.05282177776098251,0.0355650968849659,-0.1656695455312729
1429e979cbfc7c0e34b3d13e8930f317,-0.11358632147312164,0.06505190581083298,-0.10066347569227219,-0.11949422955513,-0.059363819658756256,-0.012262066826224327,0.16899298131465912,0.2346658557653427,0.16014768183231354,-0.12550227344036102,-0.07256516814231873,0.07831818610429764,-0.2542771100997925,-0.09705335646867752,0.017768267542123795,-0.02904485911130905,0.12549152970314026,0.12251356989145279,0.0466495119035244,-0.23894023895263672,-0.17878445982933044,-0.28151053190231323,-0.1059020459651947,-0.13704898953437805,-0.09935776889324188,-0.03858456760644913,0.10466243326663971,0.010555265471339226,-0.1457757204771042,-0.039466891437768936,-0.1406802386045456,-0.16226735711097717,0.03611202538013458,-0.1899251490831375,0.1337277591228485,0.004020305350422859,-0.03573156148195267,-0.1406085193157196,-0.15655064582824707,0.15678398311138153,0.2788492441177368,-0.04834902659058571,-0.15938472747802734,0.007034337148070335,-0.11918527632951736,0.16631171107292175,0.3352281451225281,0.008841183967888355,0.10468504577875137,0.15584972500801086
1455e0a1856cc2e70593ebc6f23b09be,0.07424923032522202,-0.06486442685127258,-0.2928967773914337,0.12411204725503922,0.054759979248046875,0.007853318005800247,-0.06720241159200668,0.26712775230407715,-0.22570465505123138,0.10603470355272293,-0.0664161965250969,0.06463508307933807,0.14989450573921204,0.1285586953163147,-0.11582811921834946,0.13888685405254364,0.09604348242282867,0.047368112951517105,-0.15066762268543243,-0.13171441853046417,-0.08406969904899597,-0.013017525896430016,0.11585231870412827,0.24718965590000153,-0.3119054138660431,-0.04126252606511116,0.01304038055241108,0.2427591234445572,-0.02275589480996132,-0.009660462848842144,0.1619786024093628,0.013902143575251102,0.08669773489236832,-0.20124170184135437,0.001942895003594458,-0.1653626710176468,-0.15678681433200836,-0.315456748008728,-0.10165106505155563,0.02502048946917057,0.0469641238451004,0.05876244604587555,-0.07804019749164581,-0.2050100862979889,-0.07154713571071625,-0.23684890568256378,-0.05458850786089897,0.03643600642681122,0.014460165053606033,0.13906370103359222
1470466ae63d7e65e996825de4ff1608,-0.13029026985168457,-0.15254268050193787,0.029978342354297638,0.11759009212255478,-0.12210525572299957,-0.03163716942071915,-0.15612009167671204,-0.07557299733161926,0.016465511173009872,0.03303680196404457,0.023909080773591995,0.30380013585090637,-0.2180933952331543,-0.15270301699638367,-0.20468831062316895,-0.21075500547885895,0.016903027892112732,-0.18766631186008453,-0.12339682877063751,-0.11031179130077362,0.19234599173069,0.06582719832658768,0.12975844740867615,0.05239127576351166,-0.13058876991271973,0.043293822556734085,0.011455994099378586,-0.20410825312137604,0.004857402294874191,0.15776413679122925,0.1360786408185959,0.2485729157924652,0.17079874873161316,-0.10506043583154678,0.09396428614854813,-0.11908277124166489,0.10410890728235245,0.14675787091255188,0.12729181349277496,0.16750912368297577,-0.14789921045303345,-0.20979484915733337,0.07802058756351471,-0.2791158854961395,0.07815276831388474,0.111236073076725,0.09955572336912155,-0.14450804889202118,0.056282080709934235,-0.12519586086273193
14bda127e1dbd0cc1e89423144ea0c30,-0.023933524265885353,0.08935435861349106,-0.06131167337298393,-0.10355383902788162,0.1318049281835556,0.037041839212179184,-0.06262446194887161,-0.10450952500104904,0.1190822422504425,0.0182743389159441,0.07652660459280014,0.24396392703056335,0.03681597113609314,0.03338473290205002,0.19325530529022217,0.04389746114611626,0.3601592481136322,-0.24560043215751648,-0.18725311756134033,0.20946431159973145,-0.22291654348373413,-0.19198055565357208,0.049011871218681335,-0.03292357549071312,0.13271574676036835,0.003937600180506706,-0.0973857045173645,-0.09328337013721466,-0.1375451236963272,-0.006601659115403891,0.01535468827933073,0.07857580482959747,-0.13266441226005554,-0.04337267577648163,-0.2641729712486267,0.017067043110728264,-0.15779639780521393,-0.21454723179340363,0.04894670099020004,-0.0952293798327446,0.296067476272583,-0.0938873142004013,-0.023583684116601944,0.07185304164886475,-0.1861376017332077,-0.031630951911211014,0.19184510409832,0.004450810141861439,0.1252593845129013,-0.1980837881565094
1536a202dcef5f4640e099a9eba0fc3f,-0.040188178420066833,0.07289479672908783,-0.02252812311053276,-0.13082382082939148,-0.16783063113689423,0.012707044370472431,-0.29275670647621155,0.01829228550195694,0.06503937393426895,-0.0021388516761362553,0.001037655514664948,0.031498949974775314,0.07217950373888016,0.01848691701889038,-0.03138692304491997,-0.008323431015014648,-0.0068979752250015736,0.14141790568828583,0.21593894064426422,-0.18976324796676636,0.1049053817987442,-0.057170357555150986,0.11567606031894684,0.24845027923583984,-0.06013352796435356,0.11543572694063187,0.1546296626329422,-0.058551110327243805,-0.2788148522377014,-0.001056513749063015,-0.193887397646904,-0.1804695725440979,0.18264877796173096,0.06745832413434982,0.154236301779747,0.08891796320676804,-0.1232336163520813,0.055559322237968445,0.3464292585849762,-0.24585425853729248,0.20176081359386444,-0.1845666617155075,0.014704901725053787,-0.13392092287540436,0.09552425146102905,-0.2288030982017517,0.1522303819656372,-0.021935535594820976,-0.1360117793083191,-0.010266910307109356
1587d1cd52c5552aa33bc9eef36fa7d1,0.012491551227867603,0.10258600860834122,-0.057652294635772705,0.23172104358673096,0.1409735083580017,-0.045475903898477554,-0.28021445870399475,0.1358327865600586,-0.010106916539371014,0.03630681708455086,0.1754169464111328,0.03672580420970917,-0.18694187700748444,-0.21702279150485992,0.24567174911499023,0.17751239240169525,0.08125725388526917,-0.17870481312274933,-0.028744077309966087,-0.08511970192193985,0.10236065089702606,-0.15718631446361542,-0.031464528292417526,-0.11941535770893097,-0.3027001619338989,0.11330720782279968,0.06613874435424805,0.05018143355846405,-0.08378329873085022,-0.08509199321269989,0.12599875032901764,-0.23638561367988586,0.07110196352005005,-0.07590571790933609,0.022428743541240692,0.05184610188007355,0.15110385417938232,-0.26557761430740356,-0.036084212362766266,-0.2744215130805969,-0.11827822774648666,0.07446596026420593,-0.13225120306015015,-0.02065352536737919,-0.12663185596466064,-0.1437583565711975,0.11467510461807251,-0.02278831973671913,-0.19158443808555603,0.054870542138814926
15c951afca384870df0edef89fe14e98,-0.09553919732570648,0.011330774053931236,-0.055495649576187134,0.04482584074139595,0.22821059823036194,0.016441596671938896,-0.04269072040915489,-0.055906545370817184,-0.08270113170146942,0.04197125509381294,-0.19353897869586945,0.31748899817466736,0.031422797590494156,0.16041260957717896,0.10582645237445831,-0.18105371296405792,-0.15900549292564392,0.06799479573965073,-0.21877360343933105,0.1841242015361786,-0.06973983347415924,-0.05882765352725983,-0.10440726578235626,0.2568558156490326,0.08326387405395508,0.050734929740428925,0.1448739469051361,0.17038783431053162,-0.12677457928657532,-0.1567956954240799,0.2377568781375885,-0.10284702479839325,0.1921113282442093,-0.05338257923722267,0.03657427430152893,-0.0815175473690033,0.1452742964029312,0.09329424798488617,0.19842983782291412,0.1129697784781456,0.0488627664744854,-0.1946735978126526,0.19270728528499603,-0.05873792991042137,0.1700567603111267,-0.20634278655052185,0.14248572289943695,0.009643475525081158,0.15476596355438232,0.14226563274860382
15f859d36c1706a565774c54b91d21fa,-0.19293935596942902,3.0794431950198486e-05,0.04287542775273323,0.12560153007507324,0.07805518805980682,0.023310542106628418,0.18577973544597626,0.08418384939432144,-0.30664876103401184,0.002438200172036886,0.0813940092921257,0.04519503936171532,-0.06162340193986893,-0.03676137700676918,-0.015693645924329758,-0.08974870294332504,-0.16203700006008148,0.02591300569474697,0.053403984755277634,-0.14827364683151245,-0.1284702718257904,-0.1970323622226715,0.006400651298463345,-0.13884735107421875,-0.3119422495365143,0.1757492572069168,-0.1833198070526123,0.19241683185100555,-0.12272745370864868,-0.04249704256653786,0.13286767899990082,0.057956721633672714,0.1954485923051834,-0.07740559428930283,-0.3006439805030823,0.13973230123519897,0.11919501423835754,0.037291061133146286,0.19748355448246002,-0.23971275985240936,-0.11889193952083588,-0.19852764904499054,-0.06051179766654968,-0.01460555661469698,0.1419077217578888,0.12392158806324005,0.03183504566550255,-0.2287648618221283,-0.031178947538137436,0.06517989933490753
163ae1c5ff735e60365d0bdd238d3080,-0.13453572988510132,-0.09668239951133728,0.13456739485263824,0.20847474038600922,-0.09773694723844528,-0.1291324645280838,-0.04135948419570923,-0.10354465991258621,-0.12207124382257462,-0.08951074630022049,0.11545047909021378,-0.10797423869371414,-0.10907191038131714,-0.16487771272659302,0.21592162549495697,-0.09226971119642258,0.013149743899703026,-0.0017727409722283483,-0.07620590180158615,0.26682770252227783,0.13263019919395447,-0.06185819208621979,0.16178324818611145,-0.03266236558556557,-0.04370206594467163,0.08094126731157303,0.19986337423324585,-0.19686928391456604,0.008611625991761684,0.16447213292121887,-0.20155692100524902,0.058597106486558914,-0.1305380016565323,-0.30336377024650574,-0.17703121900558472,0.08660681545734406,0.032865628600120544,-0.1686604768037796,-0.12236415594816208,-0.14388057589530945,0.0018495704280212522,-0.13144496083259583,-0.12358079105615616,-0.06938406825065613,-0.11592566967010498,-0.19074247777462006,0.27034252882003784,-0.25213974714279175,-0.09319587796926498,0.0193004347383976
17a95f5882dadcdb929ccaec2f939494,0.01207199227064848,0.049736544489860535,-0.280148983001709,0.21175749599933624,-0.08694170415401459,-0.045962441712617874,-0.14343510568141937,-0.1066642478108406,-0.06029330566525459,-0.05930007994174957,-0.16739675402641296,0.06824303418397903,-0.1872842013835907,0.12295994162559509,0.1474776268005371,0.14696703851222992,-0.04930752515792847,-0.27871963381767273,-0.04450010880827904,0.028845544904470444,-0.20115387439727783,-0.20867060124874115,0.06905876845121384,0.014426345005631447,0.06848354637622833,0.12328477203845978,0.2445177286863327,0.10949424654245377,-0.3638538420200348,-0.07139555364847183,0.0009385100565850735,0.14498567581176758,0.15989556908607483,0.12184702605009079,-0.09751775860786438,-0.10337404161691666,-0.08485148102045059,-0.18123580515384674,-0.12589149177074432,-0.11964491754770279,0.01073765754699707,0.019386613741517067,0.01031447947025299,0.11776982992887497,0.2160189002752304,-0.1714968979358673,-0.025372637435793877,-0.046332404017448425,-0.13385675847530365,-0.18682166934013367
17c18fd18c859f95a363eb2f36fc6591,0.06974145025014877,-0.1764821708202362,-0.17170198261737823,0.03923126682639122,0.024478048086166382,0.04823648929595947,0.18270805478096008,-0.10021805763244629,-0.32332146167755127,-0.03743855282664299,0.10224985331296921,0.24752405285835266,-0.2077145278453827,-0.2920362949371338,0.15910616517066956,0.08167574554681778,0.16756665706634521,0.17659026384353638,-0.005396394059062004,-0.04024859890341759,0.007833543233573437,0.12468588352203369,0.05032287538051605,0.15165624022483826,0.024432189762592316,-0.18678854405879974,-0.06986840814352036,0.2518382966518402,-0.3084494471549988,0.011280437931418419,-0.030374137684702873,-0.012137998826801777,0.10591374337673187,-0.19091540575027466,0.11499711126089096,-0.018522383645176888,-0.1060134544968605,0.012945424765348434,0.16947469115257263,0.104514941573143,0.031346842646598816,-0.09845513105392456,0.12108808755874634,-0.0029569067992269993,0.1118529662489891,-0.18093833327293396,0.1040394976735115,-0.177711620926857,0.11312825977802277,0.09095699340105057
180view,-0.05572309345006943,-0.1616257131099701,-0.2322009801864624,0.15362566709518433,-0.09779743105173111,-0.16360029578208923,0.08358558267354965,-0.11668366938829422,0.10105260461568832,0.275422066450119,0.11764591187238693,0.13934442400932312,-0.05880843475461006,0.045082010328769684,-0.01175785530358553,0.18953348696231842,0.13778048753738403,0.1555594801902771,0.018997065722942352,0.1882084757089615,0.11760025471448898,0.15835429728031158,0.12857528030872345,-0.23684798181056976,-0.15495212376117706,0.04327789321541786,-0.19374707341194153,-0.0374404676258564,-0.19099467992782593,-0.16005168855190277,-0.11681356281042099,0.12321113795042038,-0.039843082427978516,-0.13414758443832397,-0.09043104946613312,-0.11696811020374298,-0.17895463109016418,0.021359315142035484,0.22111642360687256,-0.16162993013858795,0.2190956026315689,-0.009120073169469833,-0.1739434003829956,-0.03095344826579094,-0.1891535073518753,0.1977125108242035,0.024516679346561432,0.08192582428455353,-0.13701829314231873,0.0017169991042464972
188249de9d79ebe1280550f560490bdb,-0.19148005545139313,-0.2077849954366684,-0.09238418191671371,0.13595089316368103,0.08718527108430862,-0.19864436984062195,-0.09048694372177124,-0.11533179134130478,0.1399809569120407,-0.12658822536468506,-0.09674280881881714,0.28227338194847107,0.03836827352643013,-0.05735175311565399,-0.189752459526062,0.23438550531864166,-0.11446962505578995,-0.06222352012991905,0.0024274084717035294,-0.11226389557123184,0.023105161264538765,-0.19695565104484558,0.026506653055548668,0.17121070623397827,0.1119844987988472,-0.0335916243493557,0.30189892649650574,0.12099386006593704,-0.15840141475200653,-0.21460634469985962,0.07483655214309692,-0.07314790040254593,0.11051711440086365,-0.21002356708049774,-0.057838983833789825,0.12266401946544647,-0.12094561010599136,0.15434077382087708,-0.21208614110946655,-0.11982263624668121,0.03693858161568642,-0.23394455015659332,0.06046449765563011,0.020907090976834297,0.19428889453411102,-0.09954099357128143,0.12262743711471558,0.01660071313381195,0.089976005256176,-0.0015290892915800214
19200f89581df21e4c4830d3cba90074,-0.04658222571015358,0.18015165627002716,-0.16729801893234253,0.05507587641477585,-0.06624309718608856,0.0776224285364151,-0.2798120975494385,-0.04959404468536377,-0.24033968150615692,-0.09054528176784515,-0.04551027715206146,-0.1496000736951828,-0.03279001638293266,-0.07597829401493073,0.08034643530845642,-0.09920930117368698,0.14010074734687805,0.1677103340625763,0.05528342351317406,0.013266537338495255,-0.1441677361726761,0.02646738477051258,0.05594511330127716,-0.215084508061409,-0.3124224543571472,-0.10270518809556961,0.02089141122996807,0.12824027240276337,-0.057714372873306274,0.19543196260929108,-0.11511240154504776,0.06751096248626709,-0.02332460694015026,-0.07047245651483536,-0.22354339063167572,-0.07426004856824875,-0.028252707794308662,0.1468660533428192,0.14574535191059113,0.20788230001926422,0.20157206058502197,-0.08162432909011841,-0.0011643501929938793,0.12788967788219452,0.17921565473079681,-0.13633570075035095,-0.11522975564002991,-0.22841934859752655,0.3062465786933899,0.044431816786527634
192a73506edadbf52f188afcb6010b7e,0.2208462953567505,0.09654034674167633,0.003572317771613598,-0.18954682350158691,-0.045230139046907425,0.13769523799419403,0.0922287330031395,0.28689053654670715,0.031140871345996857,-0.2539680004119873,0.2030329704284668,-0.09747494012117386,-0.17458269000053406,0.05766207352280617,0.04421447962522507,-0.2679431140422821,-0.1670238971710205,-0.04931836202740669,0.22673869132995605,-0.16904941201210022,-0.13154204189777374,0.05538452789187431,0.14607006311416626,0.09414906799793243,0.14722050726413727,0.1487341672182083,-0.03141568973660469,0.15517385303974152,-0.19160979986190796,0.11904169619083405,-0.1606229990720749,-0.11285601556301117,-0.18517126142978668,0.026119010522961617,-0.09964538365602493,-0.1028645783662796,0.17548613250255585,-0.03165160492062569,0.22902818024158478,0.05341251939535141,0.11902540177106857,-0.07911952584981918,-0.1406571865081787,0.0670982152223587,-0.06706444174051285,0.007469179108738899,0.15024754405021667,0.15422433614730835,-0.09822969138622284,-0.05805276706814766
195f44914ccbd886a50974f52422d247,0.3013306260108948,-0.004351362120360136,-0.03791799768805504,-0.01527080312371254,-0.03323954716324806,0.010335328988730907,-0.10459364205598831,-0.04289054125547409,0.009864694438874722,0.08070380985736847,-0.0785076692700386,0.26481857895851135,-0.08614034205675125,0.1556183099746704,0.011046490631997585,0.007380837108939886,0.12383966147899628,-0.13071733713150024,-0.03498901054263115,0.1911114752292633,0.3032505512237549,-0.025901250541210175,-0.16040726006031036,0.12932482361793518,0.0817011147737503,0.2217075526714325,0.13592760264873505,-0.11405333876609802,-0.06644094735383987,-0.14786209166049957,-0.13938570022583008,0.13660310208797455,0.11189769953489304,0.19432154297828674,-0.302565336227417,-0.11201820522546768,-0.08712539076805115,-0.14203469455242157,-0.11395838111639023,0.021193597465753555,-0.1558695137500763,0.008395148441195488,-0.1581047624349594,-0.13576574623584747,-0.14489039778709412,0.07392403483390808,0.17944516241550446,-0.15365774929523468,0.19230879843235016,-0.19809222221374512
1aa926c17f4ebb55d9aa4316fe07447b,0.22023214399814606,0.18721184134483337,0.2709561586380005,0.021990276873111725,-0.11816724389791489,-0.0475282296538353,-0.1740388572216034,0.1780714988708496,-0.033084284514188766,0.070077084004879,-0.09603921324014664,-0.1143089309334755,-0.09816458821296692,0.02505318447947502,-0.021756209433078766,-0.10730305314064026,-0.024544620886445045,-0.001653020502999425,-0.28917860984802246,0.15358811616897583,-0.23569558560848236,0.16735698282718658,-0.08251427859067917,0.16282176971435547,0.1140432208776474,0.1994027942419052,0.21977047622203827,0.11063072830438614,-0.1251194179058075,0.19183596968650818,-0.002760978415608406,-0.09876804798841476,0.09644123911857605,-0.13410130143165588,0.15920737385749817,-0.04916020855307579,0.12097284942865372,-0.07285366952419281,0.13725583255290985,-0.01812778040766716,-0.033507537096738815,-0.10894767194986343,0.09690265357494354,-0.09643777459859848,0.1361204832792282,-0.12935951352119446,-0.056863222271203995,-0.27244889736175537,-0.20123232901096344,-0.1857362687587738
1affa7d25863ed735c9116fc25da0d94,-0.11166147142648697,0.17992982268333435,-0.1748325079679489,0.05420483648777008,0.202411487698555,-0.037099581211805344,-0.1257341057062149,-0.06892796605825424,-0.17477965354919434,-0.09634270519018173,-0.20753927528858185,-0.051781754940748215,-0.12649719417095184,-0.03376713767647743,0.05027369037270546,-0.02300148643553257,-0.12160392850637436,-0.19921350479125977,-0.07928795367479324,-0.10282116383314133,-0.26253852248191833,0.0498843640089035,-0.09493569284677505,0.02044767700135708,-0.005103245843201876,-0.08224096894264221,0.32149603962898254,-0.16844160854816437,-0.153012216091156,-0.016310926526784897,0.16965973377227783,0.050030436366796494,-0.023265620693564415,-0.02221224084496498,-0.18374688923358917,-0.26312506198883057,-0.007184804417192936,0.04621119797229767,0.1647976040840149,0.1799338161945343,0.057366304099559784,-0.259034126996994,-0.1639891266822815,-0.2424938678741455,0.1679762601852417,0.09244157373905182,-0.05846991017460823,-0.008972850628197193,-0.14333267509937286,-0.157012939453125
1b4e6aefc40da408a99b67674ea136be,-0.0027388352900743484,-0.0695488452911377,-0.007441789843142033,0.21833987534046173,0.03272357955574989,-0.023478182032704353,-0.05711571127176285,-0.049713294953107834,0.0911431536078453,-0.1360330432653427,0.13947108387947083,0.03858383372426033,-0.23668138682842255,-0.09247347712516785,-0.26394322514533997,-0.16914379596710205,-0.16384075582027435,0.0700029730796814,0.1487456113100052,0.05413108319044113,0.10889195650815964,-0.0997384563088417,0.044391121715307236,0.16677656769752502,-0.1521182805299759,0.22034908831119537,0.3609679341316223,0.10067441314458847,0.03342128172516823,0.13267481327056885,0.05737003684043884,0.22719192504882812,-0.09307573735713959,-0.17371328175067902,0.002789389109238982,0.046429552137851715,-0.03986292704939842,0.034261833876371384,-0.18479745090007782,0.181151881814003,0.24529296159744263,-0.19004644453525543,0.10419634729623795,-0.02654959075152874,-0.1865699291229248,0.024355415254831314,-0.14863120019435883,-0.2406546026468277,-0.024126064032316208,0.027584724128246307
1c0ab2704cc71aa71a39ddac696917d3,0.2774072587490082,0.11624961346387863,0.05692552030086517,-0.0016333829844370484,-0.05035089701414108,0.12869039177894592,0.07736998051404953,-0.004563682246953249,-0.11687792837619781,-0.10732803493738174,0.005487977061420679,-0.06785979121923447,-0.25566205382347107,-0.2666877508163452,0.2970523238182068,-0.15961745381355286,0.002915424294769764,0.09598337113857269,-0.11479755491018295,0.10338345170021057,0.1696334332227707,-0.011102988384664059,0.1752297580242157,-0.05213693901896477,-0.20187416672706604,0.1114438995718956,-0.07562822848558426,0.19937096536159515,-0.12796832621097565,0.24564556777477264,0.12375055253505707,-0.16348615288734436,0.004002577159553766,0.03973841294646263,0.0851077288389206,0.010014439933001995,0.12695270776748657,-0.031826622784137726,0.18544253706932068,0.1008564755320549,0.052628032863140106,0.024237971752882004,0.13086345791816711,0.05296521633863449,0.15961529314517975,-0.13502809405326843,0.2539597749710083,0.07811011373996735,0.2538694143295288,0.12522701919078827
1d6d75fbf46cdb3af40637f5e78ab20f,0.007009430788457394,0.04177797958254814,-0.03423232212662697,-0.06365976482629776,-0.1579851359128952,0.1004832312464714,-0.10531818866729736,0.11823999136686325,-0.15894684195518494,-0.34079015254974365,-0.004237905610352755,0.07890500873327255,0.14192470908164978,0.14415621757507324,0.1082594022154808,0.09456314891576767,0.04237588122487068,0.028414659202098846,0.04987597465515137,-0.01749080792069435,-0.11534040421247482,0.03850720822811127,-0.1769319623708725,-0.10292599350214005,-0.05996052548289299,0.23681558668613434,0.03060002252459526,-0.06105491891503334,-0.21009235084056854,-0.0474967397749424,-0.15714605152606964,0.10471922159194946,0.07114851474761963,-0.13837841153144836,0.19642071425914764,-0.0687272772192955,-0.140197291970253,0.0849982425570488,-0.18334509432315826,-0.22544769942760468,0.01579650677740574,-0.31937143206596375,-0.14610891044139862,-0.2677338719367981,-0.13999071717262268,-0.016640111804008484,0.24522779881954193,-0.16646409034729004,-0.11536584049463272,0.14141252636909485
1de6997997771899e02bd36549f6241a,0.08777245879173279,0.03837946057319641,-0.07084903120994568,0.07206715643405914,-0.2825259864330292,0.2944473922252655,0.005178908817470074,0.26410770416259766,0.05983932316303253,-0.004738025367259979,0.12171640247106552,0.1934165507555008,-0.06649307161569595,-0.0013628106098622084,0.02423238940536976,0.0930396169424057,0.10703051090240479,-0.31553006172180176,-0.11734966933727264,0.11128037422895432,0.10560242086648941,0.11186346411705017,0.05409788340330124,0.010235436260700226,-0.23570464551448822,-0.12929955124855042,0.15773087739944458,0.08318767696619034,-0.2857646048069,-0.14651548862457275,-0.1063607856631279,0.054943595081567764,0.046930961310863495,0.12641476094722748,-0.1499623954296112,-0.005378092639148235,0.14901700615882874,-0.2812096178531647,0.1421070247888565,-0.02954122982919216,0.14164882898330688,0.12565074861049652,-0.14402888715267181,-0.03170577064156532,0.09552450478076935,0.2095227837562561,-0.016306418925523758,-0.018393825739622116,-0.1225578635931015,0.010546357370913029
1dfaa4f0a3ad54d3a8823e5f1d6d162f,-0.04946940764784813,0.035814132541418076,-0.09446226805448532,-0.0985509380698204,-0.07741197198629379,0.2886819541454315,-0.040779128670692444,-0.041251040995121,0.07342951744794846,0.047526996582746506,-0.2093440145254135,0.2794255316257477,0.16539423167705536,-0.2031836360692978,0.14110608398914337,0.05276177078485489,0.20123715698719025,0.028376178815960884,0.0753723680973053,0.2011265605688095,0.03735513240098953,-0.10268893092870712,-0.09789347648620605,0.19654805958271027,-0.04848061874508858,0.0545991025865078,0.008816947229206562,0.008139582350850105,0.02261297218501568,-0.17708884179592133,0.30621230602264404,0.1047673150897026,0.21602272987365723,0.16177642345428467,-0.15008890628814697,0.1117926761507988,-0.1507382094860077,-0.05243314802646637,0.10183434188365936,-0.013301512226462364,-0.08887949585914612,0.13752500712871552,0.0941656231880188,-0.17096860706806183,-0.006607230752706528,0.1301524043083191,0.2017706334590912,-0.29689112305641174,0.09037117660045624,-0.10759938508272171
1e20d8e27f792a206921892e0c4105d0,0.08911249786615372,0.2215912938117981,0.028551144525408745,-0.07524091005325317,-0.17799675464630127,-0.04698457568883896,-0.13645364344120026,0.37379807233810425,0.07074425369501114,0.11948408931493759,0.08190250396728516,0.1397920697927475,-0.16310475766658783,-0.10854209959506989,-0.08594899624586105,-0.26621973514556885,-0.07498572766780853,0.08223295211791992,0.0016281016869470477,-0.03514988720417023,0.07237020134925842,-0.2334640473127365,-0.0328652486205101,-0.07042849063873291,-0.22316375374794006,0.1595918834209442,-0.1411226987838745,-0.13928347826004028,0.024764064699411392,-0.1269816756248474,0.16620561480522156,-0.02998061664402485,0.07990110665559769,-0.19930598139762878,-0.2243618369102478,-0.11360222846269608,-0.1320028454065323,-0.004346237052232027,-0.050136253237724304,0.07904072850942612,-0.1455410122871399,0.05299096554517746,-0.1440640687942505,-0.04352831467986107,-0.14499840140342712,-0.13104692101478577,0.26432397961616516,0.08637756109237671,0.13117676973342896,-0.1669922173023224
1e84bf197c8f5c3d2338af24d9311295,0.09950635582208633,-0.013661154545843601,-0.2213461846113205,0.08243108540773392,-0.10590070486068726,-0.0649678036570549,-0.05009724944829941,-0.15269306302070618,-0.1386251002550125,0.15380004048347473,-0.30552345514297485,-0.18842686712741852,0.05074986070394516,0.05715498328208923,-0.060092102736234665,0.06912489980459213,0.08859823644161224,-0.053046777844429016,0.2159971296787262,0.12418892979621887,0.06643595546483994,0.16073372960090637,0.11090901494026184,0.049713850021362305,0.015066973865032196,0.2370814085006714,0.023454148322343826,0.0574244000017643,-0.29102823138237,0.12930691242218018,0.0012754698982462287,0.061975181102752686,0.18098539113998413,-0.28871577978134155,-0.22253727912902832,0.03824307769536972,0.040693189948797226,0.16477033495903015,0.17550070583820343,-0.12214875221252441,-0.02389874868094921,0.11434955149888992,0.071416936814785,-0.23268434405326843,-0.2116805464029312,0.11290448904037476,0.02736355923116207,-0.1407826989889145,0.13984592258930206,0.106817826628685
1e907c31506abec4e4c9b27d457b8cb2,0.04734020680189133,0.014752517454326153,0.014685288071632385,0.04646606370806694,0.06402523070573807,-0.07207679748535156,-0.06287948042154312,-0.11925400793552399,-0.055492766201496124,0.017875343561172485,0.004598354920744896,0.23887141048908234,-0.28342074155807495,-0.008015685714781284,0.10480470210313797,0.21427299082279205,0.12041172385215759,-0.13781480491161346,0.07649347186088562,-0.07022955268621445,-0.06731966882944107,0.08232805877923965,-0.23953595757484436,0.2955816686153412,0.02816750295460224,0.05780472606420517,-0.0004996992065571249,-0.1536179482936859,-0.13896474242210388,-0.0021178736351430416,-0.05887896940112114,-0.016598885878920555,-0.06453439593315125,0.14060251414775848,-0.05002864450216293,0.17611311376094818,-0.01433477085083723,0.18311373889446259,0.24875502288341522,0.05975983664393425,0.2300366312265396,0.08645112067461014,0.057604726403951645,-0.15219464898109436,-0.12145472317934036,-0.06003295257687569,0.25704407691955566,-0.30606529116630554,0.22944603860378265,0.21106114983558655
1f048479baeab589c5d406260cf34f1f,0.37354838848114014,0.07009574770927429,0.1818157136440277,0.10735520720481873,-0.1774575412273407,0.014639484696090221,-0.19994670152664185,-0.1092243641614914,-0.028705913573503494,-0.19736887514591217,-0.0870324894785881,-0.03663131594657898,0.10683399438858032,0.11546890437602997,0.15051083266735077,-0.3088175058364868,0.016624731943011284,-0.05392850190401077,-0.10013599693775177,0.03418552502989769,0.2720641791820526,-0.26278555393218994,-0.13938923180103302,0.15466615557670593,0.05460602045059204,0.1054338738322258,-0.057631898671388626,0.18258319795131683,0.02571887895464897,-0.10454006493091583,-0.11597828567028046,-0.01771533116698265,-0.18070174753665924,0.0018102325266227126,0.1494523286819458,-0.06860052794218063,-0.14942291378974915,-0.14179781079292297,-0.11951228976249695,-0.05519729107618332,0.012327136471867561,-0.038565926253795624,-0.05695974826812744,-0.2036796510219574,0.09606780856847763,0.09264930337667465,0.1553417295217514,0.064602330327034,0.13382671773433685,0.17062443494796753
1f0cdbbd88dee27628e588d0f47a240e,-0.1377747505903244,-0.015828289091587067,0.06992421299219131,0.22391577064990997,0.104236900806427,0.15814416110515594,0.04844628646969795,-0.13529114425182343,-0.057519275695085526,-0.04766564071178436,-0.059254229068756104,0.0235636904835701,-0.13680556416511536,0.13769976794719696,0.11624573916196823,-0.3122459650039673,-0.06767862290143967,-0.04211394488811493,-0.1174652948975563,-0.14781098067760468,0.17842036485671997,-0.10765701532363892,-0.16061978042125702,-0.16140034794807434,0.0983591377735138,0.09060192853212357,0.22444133460521698,-0.14749979972839355,-0.2473571002483368,-0.03943246230483055,0.0827229768037796,-0.02628694660961628,0.054477546364068985,-0.11820124834775925,0.04487120360136032,-0.0819493904709816,-0.28343695402145386,0.21602652966976166,0.2594708204269409,0.08257244527339935,0.030203869566321373,-0.21597759425640106,0.10994847118854523,-0.11287612468004227,-0.051245592534542084,-0.1525082141160965,0.14319908618927002,-0.09745671600103378,-0.15573625266551971,-0.18431681394577026
1f3224876bab552a43c94d052163ce2c,-0.07264186441898346,0.024494480341672897,-0.2525608241558075,0.23558081686496735,0.2249756008386612,-0.12553060054779053,-0.058230865746736526,-0.07707127183675766,0.05023441091179848,-0.12602873146533966,-0.05911478027701378,0.0762314423918724,0.1545131504535675,-0.31233224272727966,0.029722819104790688,-0.10653389990329742,0.09887842833995819,0.0064668902195990086,0.15544509887695312,0.1269988864660263,0.23485520482063293,-0.035341985523700714,-0.0980808213353157,-0.11073025315999985,-0.05561130866408348,0.10180807113647461,0.13051486015319824,0.05605437979102135,0.02635057643055916,-0.14801256358623505,0.2277742326259613,0.12495363503694534,0.12448607385158539,-0.17262722551822662,-0.18071655929088593,0.04725716635584831,0.029176803305745125,-0.1475744992494583,-0.18033075332641602,-0.03632431477308273,0.03538704290986061,0.002061935607343912,-0.14734891057014465,-0.23530785739421844,-0.12166706472635269,-0.06279589980840683,0.27570608258247375,0.11233177781105042,0.23442131280899048,0.09115595370531082
1ffa611d07d3225cce137c604b331a8d,0.19251391291618347,0.026110103353857994,0.21508637070655823,-0.030378928408026695,0.30058008432388306,-0.2002464085817337,-0.17459167540073395,-0.11416903138160706,-0.07910766452550888,0.07728035748004913,-0.0825798362493515,0.152203768491745,-0.10179300606250763,0.15621614456176758,-0.05608317628502846,-0.0871129110455513,0.21021196246147156,0.022827094420790672,-0.05656988546252251,0.18597739934921265,0.17203755676746368,-0.10433895885944366,-0.08062109351158142,0.24375495314598083,-0.203830748796463,-0.09669466316699982,0.14365407824516296,0.05984564870595932,-0.046265892684459686,0.14351706206798553,0.08050122857093811,-0.1353851854801178,0.2993767559528351,0.11720452457666397,0.1940583437681198,0.10573335736989975,0.05546599626541138,-0.09779693931341171,-0.028913021087646484,-0.14511863887310028,0.08550024032592773,-0.05635956674814224,-0.04888211935758591,-0.11558431386947632,-0.21769122779369354,-0.09295868128538132,-0.24126453697681427,-0.08542588353157043,-0.08117043226957321,-0.027092220261693
1qjp,0.06515669077634811,-0.01734277233481407,0.1407187283039093,0.16093185544013977,-0.08564412593841553,-0.11113233864307404,0.13232140243053436,0.07021991163492203,-0.2604415714740753,0.13570547103881836,-0.14848148822784424,0.16661761701107025,0.1030387431383133,0.019406206905841827,0.17116998136043549,0.15334787964820862,0.057571761310100555,-0.14069107174873352,-0.155454620718956,-0.11863116174936295,-0.07748223096132278,0.08591241389513016,0.12432903796434402,0.033960528671741486,-0.08756241947412491,-0.23793740570545197,0.09668717533349991,0.1753050982952118,-0.11024359613656998,0.16343224048614502,0.22929611802101135,-0.11652163416147232,-0.09374813735485077,-0.10495374351739883,-0.026589764282107353,0.19686630368232727,0.13706514239311218,0.09338382631540298,0.12732122838497162,-0.03430282697081566,-0.23918116092681885,0.07016336172819138,0.062782883644104,0.15326958894729614,0.2126917988061905,-0.18097293376922607,-0.19480100274085999,-0.10359729826450348,-0.1184210553765297,0.269489049911499
1table,0.080919049680233,-0.018312988802790642,0.005538369528949261,0.2177048623561859,0.023691393435001373,0.18337276577949524,0.04515974968671799,-0.006706752814352512,-0.023746922612190247,-0.04750858619809151,-0.053688131272792816,0.18479593098163605,0.2982487380504608,0.042611442506313324,-0.08552206307649612,0.12964768707752228,-0.1719672530889511,0.10666540265083313,0.021960042417049408,-0.02706903964281082,-0.0802231878042221,-0.15606608986854553,-0.22060741484165192,0.029823677614331245,0.21947643160820007,-0.014458756893873215,-0.286101371049881,0.04620489105582237,-0.09790696948766708,-0.031565532088279724,0.026334179565310478,-0.16712789237499237,-0.15830233693122864,-0.27702999114990234,-0.025374339893460274,-0.05523800849914551,0.010544662363827229,-0.21600286662578583,0.10050401836633682,0.052202243357896805,-0.06974053382873535,0.08673585951328278,0.019444964826107025,0.29439887404441833,0.010166354477405548,0.13764508068561554,0.18225066363811493,0.19309239089488983,0.20860254764556885,-0.25098004937171936
20394ca53b813a8117ffe8daaecab9fc,-0.15816369652748108,-0.08685862272977829,-0.1080559641122818,0.21161295473575592,-0.22280651330947876,-0.023677632212638855,-0.07156946510076523,0.125038281083107,0.04335513710975647,-0.12447389215230942,0.20336411893367767,0.0783281922340393,-0.17008672654628754,-0.056025151163339615,-0.13170437514781952,0.0751304104924202,0.31355854868888855,0.13348686695098877,0.22938945889472961,-0.021100113168358803,0.2433856874704361,-0.1386914700269699,0.08760473877191544,-0.1436488777399063,-0.10080133378505707,-0.03776801750063896,0.07518819719552994,-0.1609417200088501,-0.21343956887722015,-0.04567647725343704,-0.08989998698234558,0.09948201477527618,0.07667800784111023,0.0008987815235741436,0.027646781876683235,-0.07415031641721725,-0.04866739362478256,-0.2623494863510132,-0.08058522641658783,0.07066352665424347,-0.03577738255262375,-0.013116315938532352,-0.14086735248565674,0.04445795342326164,-0.3035382330417633,0.05008235573768616,0.2665627896785736,-0.20704211294651031,0.06309673190116882,-0.0685972273349762
20b94fdcffc4ad026527612f11c54fd2,-0.14564946293830872,-0.0003560848126653582,-0.16017435491085052,0.13175828754901886,-0.10202515125274658,0.008926800452172756,-0.1766970008611679,-0.025605669245123863,-0.13967232406139374,-0.1210131123661995,0.05975387245416641,-0.010563514195382595,0.10667048394680023,-0.1492573469877243,0.007915209047496319,-0.26818180084228516,-0.1669580340385437,-0.18766260147094727,0.0523616261780262,0.10489578545093536,-0.20324014127254486,-0.27443626523017883,0.31263816356658936,-0.06870310008525848,-0.19603988528251648,0.16451194882392883,-0.009768573567271233,-0.11883801221847534,-0.0467921644449234,-0.14952105283737183,-0.036819517612457275,-0.1907331645488739,0.01705229841172695,0.12493349611759186,-0.047809384763240814,-0.09445197880268097,-0.13211388885974884,-0.13816426694393158,-0.16105222702026367,-0.20163406431674957,0.06441371887922287,-0.2344706654548645,0.08085019886493683,0.12686586380004883,-0.06347022950649261,0.24474230408668518,0.07885560393333435,-0.1717527210712433,0.013991553336381912,0.01308871153742075
21390eddc36688573a580f2b5fc51a68,0.1845657080411911,0.2204073667526245,-0.021760927513241768,0.018095403909683228,0.2033671736717224,0.186777263879776,-0.08260469138622284,-0.033528346568346024,-0.04719168692827225,-0.11000979691743851,-0.15200915932655334,0.09042919427156448,-0.19829663634300232,-0.08216512948274612,0.18954381346702576,0.13176223635673523,-0.1524081826210022,0.11027021706104279,-0.18037043511867523,-0.06737557798624039,-0.03436699137091637,0.17834125459194183,0.06346466392278671,0.19964160025119781,0.1554037630558014,-0.0262556541711092,0.13035233318805695,0.1759217083454132,-0.125778466463089,0.20689170062541962,0.21236692368984222,-0.1406492292881012,0.1965695321559906,-0.1557103544473648,-0.14117082953453064,-0.022915620356798172,-0.08269412815570831,-0.18536394834518433,-0.08389674127101898,0.05421668663620949,-0.10957259684801102,0.0731055736541748,-0.0963919460773468,-0.15004520118236542,-0.18175213038921356,-0.10271363705396652,0.3172326982021332,0.10278540849685669,0.037256330251693726,0.043889645487070084
214d51e4d0b16304ed4edca9a2757d29,-0.07663463801145554,-0.07096148282289505,-0.15004576742649078,-0.040421657264232635,0.08075108379125595,0.06244629621505737,0.013767043128609657,0.04338321462273598,0.21309137344360352,0.025035254657268524,-0.17451252043247223,-0.13214053213596344,0.07683046162128448,-0.17130710184574127,-0.24708272516727448,-0.003990501165390015,-0.040085822343826294,-0.08342836052179337,-0.0117587735876441,-0.041698187589645386,-0.1728447675704956,-0.20080333948135376,-0.12215252965688705,-0.06711172312498093,-0.18322552740573883,-0.04023481532931328,-0.09014599025249481,-0.12426808476448059,-0.12099338322877884,0.09629516303539276,-0.11064868420362473,0.10418820381164551,0.1575658768415451,-0.12588825821876526,-0.19769689440727234,-0.12829841673374176,0.269937664270401,0.06952579319477081,-0.17692942917346954,0.10871376097202301,-0.05020654946565628,-0.12412206828594208,0.0925544798374176,-0.40123170614242554,-0.2500151991844177,0.07784116268157959,0.25902655720710754,-0.1019548699259758,-0.05879320204257965,-0.04811321571469307
2166612f6f709e5c97e9fe03038bdf9b,0.015236125327646732,0.1856544017791748,0.152200385928154,-0.05885562673211098,-0.10193854570388794,0.25222471356391907,0.021996131166815758,0.21126781404018402,-0.0363878458738327,-0.2740134000778198,-0.19560596346855164,-0.12554030120372772,-0.29374048113822937,-0.19584108889102936,-0.04046104475855827,0.09464488923549652,-0.034243203699588776,0.05831579491496086,0.08650156855583191,-0.045921701937913895,-0.024494614452123642,0.06666368246078491,0.2822892367839813,0.07977040857076645,0.12481005489826202,0.13419315218925476,0.04885606840252876,0.010423421859741211,-0.036311764270067215,-0.016052009537816048,0.101240374147892,0.08169543743133545,0.013820615597069263,-0.04677076265215874,-0.06709717959165573,0.1402139961719513,0.1263822317123413,0.1248127669095993,0.24094566702842712,0.10944387316703796,0.15889328718185425,-0.14869309961795807,0.18480391800403595,-0.2917194068431854,0.18825893104076385,0.031530216336250305,-0.18536630272865295,-0.0533461757004261,-0.13080991804599762,0.09250057488679886
21876d72cb394ca9bdefd1284ba55893,0.11894160509109497,0.11825592070817947,0.3042812645435333,0.21370787918567657,-0.014093415811657906,0.0701584592461586,-0.13472141325473785,0.16989882290363312,-0.08940546214580536,0.009900037199258804,0.14863014221191406,0.24381177127361298,0.01894778572022915,-0.07133010774850845,0.18584343791007996,0.029752053320407867,0.03678252920508385,0.30111926794052124,-0.06762292981147766,0.0855628028512001,0.07075924426317215,0.1294291913509369,0.04875804856419563,-0.17063377797603607,0.08616222441196442,-0.11702235788106918,0.27441850304603577,0.1587538868188858,0.03034198097884655,-0.10537860542535782,-0.0767492800951004,-0.0062916819006204605,0.11612151563167572,-0.024479230865836143,-0.24258840084075928,-0.04503817483782768,-0.11807235330343246,-0.07969053089618683,-0.21119867265224457,0.050508152693510056,0.11138097196817398,0.0036451900377869606,0.05206098034977913,-0.2042696177959442,-0.15967032313346863,-0.11958177387714386,0.16488823294639587,-0.00501618767157197,-0.17800907790660858,-0.23720267415046692
21aac386ca7dafdea4dd9290e3855ef4,-0.10190343856811523,0.26038074493408203,-0.1045415848493576,-0.06711293756961823,0.017985207960009575,0.09356522560119629,-0.01933130994439125,0.16597981750965118,0.13025137782096863,0.0728510320186615,0.18058054149150848,0.2402847558259964,-0.1263289749622345,-0.11573109775781631,0.12548591196537018,-0.09047738462686539,0.0659545361995697,0.09608744084835052,0.11560557782649994,0.2232031375169754,0.11609884351491928,-0.10735303163528442,0.23938892781734467,-0.1538383513689041,0.140921488404274,-0.05232531204819679,0.10977304726839066,0.23642414808273315,-0.31146934628486633,0.06093855947256088,0.1729690432548523,0.19692863523960114,-0.05287352204322815,0.23094898462295532,0.08972568064928055,-0.01475705485790968,-0.11266720294952393,-0.03714871034026146,0.09718843549489975,0.07218026369810104,0.028214655816555023,-0.1860939860343933,0.05887652933597565,0.013137487694621086,-0.20320597290992737,0.2658889591693878,0.0947355329990387,0.019068153575062752,-0.08024901896715164,0.02830144204199314
21db2d2ac206d05c199010178371b112,0.125664621591568,0.19905611872673035,-0.06311684846878052,-0.0636843740940094,0.024822412058711052,-0.07157635688781738,0.1731274574995041,-0.0949544832110405,0.12623032927513123,-0.02300117164850235,0.06648118048906326,0.19092680513858795,-0.08091332018375397,-0.09351376444101334,0.1594732105731964,0.005340378265827894,-0.011398541741073132,-0.07396464794874191,-0.13748006522655487,0.27446290850639343,-0.17479725182056427,-0.2685704529285431,-0.01746615394949913,0.05518171563744545,-0.12086985260248184,0.23559100925922394,0.15585900843143463,0.1483909785747528,0.027947934344410896,0.17493927478790283,-0.15056920051574707,0.08426401019096375,0.07717744261026382,-0.010639771819114685,0.04834587872028351,0.0451027937233448,0.11142678558826447,-0.17208737134933472,-0.07404376566410065,0.13053633272647858,0.17993566393852234,0.01698685996234417,0.2838962972164154,-0.057181861251592636,-0.25885480642318726,0.23493234813213348,0.08803008496761322,-0.2761005163192749,0.10310866683721542,0.04410918056964874
22b848759fd87c6f1eb4c33138f24b8d,-0.10279868543148041,-0.0018137728329747915,-0.15760765969753265,0.14625346660614014,0.16598790884017944,-0.20051470398902893,-0.11331724375486374,0.05482301115989685,0.1425222009420395,-0.1575731635093689,0.08776458352804184,-0.02167508192360401,-0.29211416840553284,-0.025327574461698532,-0.19881652295589447,-0.06859885901212692,0.2711448669433594,0.2027469128370285,0.039778534322977066,0.045367851853370667,0.13574646413326263,-0.01167766097933054,0.1034448891878128,0.0738869160413742,0.046976666897535324,0.06973621249198914,0.03260713443160057,-0.08843109011650085,-0.29142269492149353,0.17184317111968994,-0.055265091359615326,0.2530095875263214,-0.14849601686000824,-0.1638565957546234,-0.08166610449552536,0.025452321395277977,-0.05301516130566597,-0.08522000163793564,0.14674821496009827,0.1328691691160202,-0.1791040152311325,-0.18143844604492188,0.17065037786960602,0.15482963621616364,0.009462879039347172,-0.12461406737565994,0.19766542315483093,-0.06475136429071426,0.06839239597320557,0.19614778459072113
2325e93222c68297d4db04d0fece9a95,0.09992802143096924,-0.04451452195644379,-0.006551187485456467,0.15822292864322662,0.049693357199430466,-0.024456389248371124,-0.08426067233085632,0.1334153413772583,-0.06069471314549446,-0.07621142268180847,0.06986276060342789,-0.06422360241413116,-0.2021595537662506,0.09977898746728897,-0.08740784972906113,0.12003995478153229,-0.009655625559389591,0.10205060988664627,0.17692682147026062,-0.029184872284531593,-0.15722247958183289,0.02538439631462097,-0.14913280308246613,0.1258862018585205,-0.009357775561511517,0.026657002046704292,0.25887152552604675,0.12021741271018982,-0.03317243233323097,-0.04126865789294243,0.019240815192461014,0.28442221879959106,0.3608779311180115,-0.05734061077237129,-0.32017409801483154,0.0996166467666626,0.07548239082098007,-0.09926661103963852,-0.17728912830352783,-0.15265491604804993,0.11611547321081161,-0.34158799052238464,-0.1356787532567978,-0.004105947911739349,0.06324131041765213,0.14648206532001495,-0.13006308674812317,-0.19812288880348206,-0.11783689260482788,0.1040409654378891
236fcdf5aa9fcb6abe7761ae19302640,-0.03578183799982071,0.027581335976719856,0.02473968081176281,0.3315404951572418,-0.10469099134206772,0.01392143964767456,0.19947998225688934,-0.08067541569471359,-0.002071852795779705,-0.060962531715631485,0.04558136686682701,0.2376241683959961,0.10566488653421402,0.06960680335760117,0.11040101200342178,-0.23297439515590668,-0.11529377102851868,-0.25236645340919495,-0.11366987973451614,0.04605453461408615,0.1764572560787201,-0.22537022829055786,0.19191189110279083,-0.08186312764883041,-0.12270079553127289,-0.1276031732559204,-0.20062148571014404,0.1608269363641739,0.10393835604190826,-0.16302995383739471,0.15000087022781372,0.220500648021698,0.1671709567308426,-0.18874529004096985,-0.1015925332903862,-0.06507720798254013,-0.027876613661646843,-0.03196604177355766,-0.06739360839128494,0.0817265585064888,-0.027508527040481567,0.12305741757154465,0.06091645359992981,-0.011052099987864494,-0.1840154230594635,-0.03938493877649307,0.1872655600309372,-0.1850985586643219,-0.12982627749443054,0.17122285068035126
23f43eb5a833ebaafc350e3714fba47a,-0.1477850377559662,0.20779894292354584,-0.0013728333869948983,0.17414803802967072,0.056965090334415436,0.23595979809761047,-0.028935495764017105,0.14184337854385376,-0.052980687469244,-0.27537086606025696,0.17118139564990997,0.16605791449546814,0.22853296995162964,0.07480040192604065,-0.25776931643486023,-0.13025403022766113,0.08426773548126221,0.02152707241475582,-0.16444800794124603,-0.003554557915776968,0.03752113878726959,-0.2064075618982315,-0.017218539491295815,-0.12419924885034561,-0.21685665845870972,0.11246755719184875,0.17862434685230255,-0.14908841252326965,-0.017640726640820503,0.20901410281658173,0.09221819043159485,-0.1329697072505951,-0.14112843573093414,-0.08723101019859314,-0.022273821756243706,0.04875924810767174,-0.18311536312103271,0.17350028455257416,0.25271132588386536,0.07388321310281754,0.12289845943450928,-0.08899099379777908,0.074045330286026,0.15319062769412994,-0.01316061895340681,-0.12251024693250656,0.061874013394117355,-0.04394510015845299,-0.18255409598350525,0.008913966827094555
2439165f26cc1edcf9dd1bbe2bc42f09,0.027934368699789047,0.19851957261562347,0.25078094005584717,0.23606941103935242,-0.09829147905111313,-0.19553691148757935,-0.04809693247079849,0.19881334900856018,0.2680807113647461,0.15151825547218323,-0.08168821781873703,-0.13627660274505615,-0.035527147352695465,-0.13497118651866913,-0.003284906968474388,0.00924297422170639,0.09135158360004425,0.01641301065683365,0.10954803973436356,0.2503511905670166,-0.14299781620502472,-0.18214885890483856,0.04501492530107498,0.027093900367617607,-0.06603629142045975,0.1428612917661667,0.2545461356639862,0.11853452026844025,0.031050892546772957,-0.025081347674131393,-0.10341549664735794,-0.1550329625606537,-0.06182418763637543,0.07668767124414444,-0.04792531207203865,-0.005929334554821253,-0.19197624921798706,0.0426994152367115,-0.11981622129678726,0.13799594342708588,0.3223643898963928,0.0020264426711946726,-0.103248231112957,-0.1357738971710205,-0.20420116186141968,0.08047129958868027,0.21530787646770477,-0.12056007236242294,0.07612094283103943,-0.014257880859076977
2481e6f81447cb30d5ec79aa7f103e01,0.2835348844528198,-0.23335498571395874,-0.0024168845266103745,-0.06835764646530151,0.123757004737854,-0.11903078854084015,0.17619958519935608,-0.14058296382427216,0.20277053117752075,-0.1862223893404007,-0.1719597429037094,-0.027971457690000534,-0.06968224793672562,0.04183926433324814,0.15968634188175201,-0.07052935659885406,-0.056826215237379074,-0.10661955922842026,0.0714210495352745,-0.06553536653518677,0.007732834201306105,0.07978682965040207,0.2515602111816406,0.1512230634689331,-0.20432104170322418,-0.06000089272856712,0.15860019624233246,-0.08560214191675186,-0.08725596964359283,0.12877100706100464,0.009006502106785774,-0.09931711107492447,-0.13237766921520233,-0.037803616374731064,0.0860479474067688,-0.10133438557386398,0.027956340461969376,-0.16392648220062256,0.017445091158151627,0.1717471480369568,0.002884235931560397,0.030774371698498726,-0.1742275059223175,-0.08553668856620789,-0.24364976584911346,0.1556500941514969,0.18172425031661987,-0.336402028799057,-0.15245777368545532,0.1506025791168213
2497a9b45664765510c6f80fbd4e04c3,0.05909518152475357,0.017648108303546906,-0.11012344062328339,-0.14966543018817902,0.12427406013011932,-0.20193572342395782,0.190724179148674,-0.059150658547878265,-0.07463621348142624,-0.182050421833992,0.03238822519779205,0.1223934069275856,-0.15251141786575317,-0.13672100007534027,0.2077520787715912,-0.07910130172967911,-0.06141062080860138,0.009473312646150589,-0.163064107298851,0.043386444449424744,0.08684840798377991,-0.0001096256819437258,0.19637103378772736,-0.17794272303581238,0.21311447024345398,-0.005067788064479828,0.11429565399885178,-0.007323570549488068,-0.05118481069803238,-0.02832014672458172,0.1839827299118042,0.1911434829235077,0.24884621798992157,0.17655108869075775,0.019905641674995422,0.21363261342048645,-0.02955562062561512,-0.06762789934873581,-0.019625142216682434,0.001385108451358974,-0.14454402029514313,-0.22811222076416016,0.1234719380736351,-0.18626882135868073,0.1493789106607437,-0.02105814963579178,0.004780888557434082,-0.3005904257297516,0.2566607892513275,0.1736319214105606
24d332dc23762d405f6780dae83acd4b,-0.03769514337182045,0.1280246078968048,-0.10046897083520889,0.014064989052712917,-0.12275957316160202,0.02556179277598858,0.07205454260110855,-0.0017138636903837323,0.04568707197904587,0.11223576217889786,-0.04002063721418381,0.33498525619506836,0.16681316494941711,-0.035408470779657364,0.0865916758775711,-0.17274995148181915,0.07446750998497009,-0.04435064643621445,-0.06818217784166336,-0.12342757731676102,-0.1659960150718689,-0.03299194201827049,0.08134939521551132,0.13201317191123962,0.11522863060235977,0.19725121557712555,0.013731700368225574,-0.14352424442768097,-0.025554249063134193,0.2169749140739441,0.15139496326446533,0.043411776423454285,0.3403063714504242,-0.0974232405424118,-0.19039523601531982,0.1456979215145111,-0.04317896068096161,-0.2985447943210602,0.19527839124202728,0.22674115002155304,0.05901345610618591,0.08180196583271027,-0.19711187481880188,0.12231860309839249,-0.0629308670759201,0.08478232473134995,0.10263435542583466,-0.12409189343452454,-0.2504095733165741,0.05806703865528107
24e4f0fba807fac2382b2cc3ec533484,0.00025551472208462656,0.13016295433044434,-0.06078954041004181,0.06143651902675629,-0.09756020456552505,0.15195222198963165,-0.14318658411502838,0.1380801647901535,0.02830285206437111,-0.29679998755455017,-0.05338827520608902,-0.00782170332968235,-0.05713354051113129,-0.31176647543907166,-0.2675267457962036,-0.04481632634997368,-0.03924031928181648,0.17363376915454865,-0.10892598330974579,0.054391976445913315,-0.17606037855148315,0.03423881158232689,0.21420125663280487,-0.18735985457897186,0.18166813254356384,0.07760357856750488,0.1601099669933319,0.11065039038658142,0.037875741720199585,0.12048231810331345,0.02753140963613987,0.16995853185653687,0.08512261509895325,-0.0492301806807518,-0.3063773512840271,0.06452231854200363,-0.13957153260707855,-0.056070417165756226,0.2610623240470886,-0.2298058271408081,-0.16310995817184448,-0.18628869950771332,-0.035605598241090775,0.08698305487632751,0.10318971425294876,-0.12385614961385727,-0.023928873240947723,0.03361373394727707,0.028281938284635544,0.07402925193309784
24f3c4bbcdd7578bce3b558607ffdb21,0.11388829350471497,-0.13519291579723358,0.05910462513566017,0.1971103996038437,0.05915869399905205,-0.10023029893636703,-0.08266203105449677,0.1591258943080902,-0.012818419374525547,0.11014793068170547,-0.2127399742603302,-0.17153945565223694,0.1965779811143875,0.11401832848787308,0.17531658709049225,0.0959143340587616,0.0375993549823761,-0.10944575071334839,0.18372665345668793,0.08006636053323746,-0.16454505920410156,-0.08371247351169586,-0.1221548393368721,0.13091321289539337,-0.1471683382987976,-0.11448224633932114,0.1669497936964035,0.07747020572423935,-0.27220121026039124,0.09475213289260864,0.09331014752388,0.21416820585727692,0.28221777081489563,0.10490593314170837,0.12441812455654144,-0.07515858113765717,0.005512170493602753,-0.21941344439983368,-0.01990051567554474,-0.11001987010240555,-0.024594411253929138,-0.15661358833312988,0.058069340884685516,0.03659108281135559,-0.26434212923049927,0.018650397658348083,0.004574269987642765,-0.01845143735408783,0.3077744245529175,-0.09247925877571106
2545310103d7b351420dff5a9b0eb2ee,0.014542517252266407,-0.1544959545135498,-0.043162278831005096,-0.12349572777748108,-0.21226517856121063,-0.15660986304283142,-0.04611673951148987,0.20976552367210388,0.1523938924074173,-0.1280745565891266,0.2367943525314331,0.03013009764254093,-0.201618954539299,-0.24200791120529175,0.136410653591156,0.08400065451860428,0.06695332378149033,0.19307853281497955,0.13570952415466309,-0.1719936728477478,-0.04497120901942253,0.10599485784769058,0.200485497713089,-0.1891409307718277,-0.17738695442676544,-0.15133912861347198,0.051727935671806335,0.14198312163352966,-0.20544523000717163,0.18382428586483002,-0.11248819530010223,0.21123036742210388,0.02651914209127426,0.06013458967208862,-0.08902212232351303,-0.21458259224891663,-0.1269606649875641,-0.056059882044792175,0.10422856360673904,-0.06702467799186707,0.16938868165016174,0.01653083972632885,0.021451221778988838,-0.09990717470645905,0.11738049983978271,0.10359355062246323,-0.14762625098228455,-0.14038825035095215,0.12654255330562592,-0.1334260106086731
257df9c617a8208b1d3f0dad88c32817,0.02441413700580597,0.2175123542547226,0.13484732806682587,-0.11319530755281448,-0.04136396571993828,0.031687721610069275,0.013797752559185028,0.20013593137264252,0.19889916479587555,0.10861300677061081,0.10701526701450348,-0.2040620893239975,-0.284584105014801,-0.030772974714636803,0.18287120759487152,-0.22283165156841278,0.14898283779621124,0.040425557643175125,0.1594165861606598,0.020359542220830917,-0.011782054789364338,-0.0052401903085410595,0.15163913369178772,0.08019506186246872,-0.062353815883398056,0.10356371849775314,-0.00333509873598814,0.12791647017002106,-0.17715418338775635,0.07099758833646774,0.12577976286411285,0.006344441324472427,0.027800599113106728,0.1970045566558838,-0.27544018626213074,-0.22758492827415466,-0.15123523771762848,-0.1402560919523239,-0.13385628163814545,-0.011869051493704319,0.16804569959640503,0.20912417769432068,0.010538028553128242,0.16498611867427826,-0.13621902465820312,0.13843892514705658,0.017252154648303986,0.09744636714458466,0.2658267319202423,0.028297321870923042
